tree
version=v4
num_class=9
num_tree_per_iteration=9
label_index=0
max_feature_idx=5
objective=multiclass num_class:9
feature_names=Column_0 Column_1 Column_2 Column_3 Column_4 Column_5
feature_infos=[-4.2787728714416682:2.3148088381479841] [-1.8124743322840851:1.7267036337598254] -1:0:1 -1:0:1 -1:0:1:2 [-4.9560545631931543:2.479710930299281]
tree_sizes=239 3226 3287 3288 3267 3199 3220 3247 3275 221 3279 3254 3342 3335 3287 3268 3297 3290 222 3291 3309 3316 3330 3301 3291 3309 3279 222 3328 3234 3325 3321 3343 3302 3314 3262 222 3328 3306 3293 3289 3298 3271 3331 3267

Tree=0
num_leaves=1
num_cat=0
split_feature=
split_gain=
threshold=
decision_type=
left_child=
right_child=
leaf_value=-34.538776391283193
leaf_weight=
leaf_count=
internal_value=
internal_weight=
internal_count=
is_linear=0
shrinkage=1


Tree=1
num_leaves=31
num_cat=6
split_feature=5 5 0 0 0 2 5 5 5 1 5 1 1 3 1 1 5 4 2 1 2 0 1 1 1 3 1 1 1 1
split_gain=1348.27 137.723 51.7884 41.7685 20.2954 17.4523 15.9017 12.7681 10.7546 10.23 10.2241 10.0237 8.32285 6.9638 6.81888 8.09195 6.79969 6.4937 11.0419 13.0797 9.10381 8.67548 5.87884 10.9831 7.99504 5.62847 5.50011 5.32847 7.11038 8.41235
threshold=0.50211372458320791 0.97673705395506549 0.66641341075057137 0.66641341075057137 1.0000000180025095e-35 0 1.6095681597842091 0.34390594812592196 0.66032150104049381 -1.7250041544160795 0.66032150104049381 -0.74052199055755741 0.55984437839513823 1 -1.181768312920046 -0.61020204944247236 1.6095681597842091 2 3 0.79640340194099901 4 1.7653436956821802 0.73124343138345649 1.0931645721976329 0.51876526652190491 5 -0.98558014069788014 -1.1654783202806602 -0.17108050872859923 -0.66544637230647574
decision_type=2 2 2 2 2 9 2 2 2 2 2 2 2 9 2 2 2 9 9 2 9 2 2 2 2 9 2 2 2 2
left_child=7 2 4 6 -2 25 22 -1 11 -5 -6 -7 -13 -8 -11 16 26 18 19 -17 -19 -20 24 -24 27 -4 -16 -3 29 -29
right_child=1 3 5 9 10 8 13 -9 -10 14 -12 12 -14 -15 15 17 -18 20 21 -21 -22 -23 23 -25 -26 -27 -28 28 -30 -31
leaf_value=-2.2622786462046047 -2.2244368311264844 -1.9101398016959972 -2.1585462035966723 -1.6568308015360222 -2.1230145013609527 -1.8971832998345903 -1.9290762274934385 -2.2149604202783979 -1.8913249971303958 -1.947438822206109 -2.0420401897813845 -2.1222346691431127 -1.9545118216509894 -1.7978997606667193 -1.7292596054587899 -1.6578879074313171 -1.6530252203129618 -1.7165261932703071 -1.9344248337415217 -1.947438822206109 -1.9374924167367458 -1.7843177725085544 -2.1289607220219851 -1.945908605980053 -1.8399101144292107 -2.0004863180427122 -1.8971832998345901 -2.00193967409303 -1.9572221718481053 -2.1735886728779432
leaf_weight=464.42084614187479 12.110359087586401 7.3119149208068803 5.5981848612427711 2.6277194246649733 31.532633095979691 6.5121742263436344 10.396629028022289 65.00749359279871 19.76502002030611 7.540412262082099 30.847141072154045 6.9691689088940603 5.1411901786923409 6.6264228969812402 3.5417087897658348 4.1129521429538727 3.4274601191282272 5.8266822025179845 24.449215516448024 2.5134707540273666 2.7419680953025818 4.5699468255043021 7.311914920806883 5.9409308731555939 4.2272008135914794 3.77020613104105 4.3414494842290861 8.3401529565453512 13.938337817788129 4.3414494842290869
leaf_count=4065 106 64 49 23 276 57 91 569 173 66 270 61 45 58 31 36 30 51 214 22 24 40 64 52 37 33 38 73 122 38
internal_value=-2.16532 -1.97708 -2.05386 -1.90711 -2.10597 -1.97257 -1.96179 -2.25647 -1.9427 -1.85015 -2.08297 -1.99723 -2.05103 -1.87801 -1.85821 -1.84609 -1.77061 -1.8654 -1.88419 -1.76772 -1.78724 -1.91079 -1.98952 -2.0469 -1.96959 -2.09494 -1.82174 -1.98575 -2.00652 -2.0607
internal_weight=0 256.374 122.246 134.128 74.4901 47.7559 68.435 529.428 38.3876 65.693 62.3798 18.6225 12.1104 17.0231 63.0653 55.5249 11.3106 44.2142 35.6456 6.62642 8.56865 29.0192 51.4119 13.2528 38.1591 9.36839 7.88316 33.9319 26.6199 12.6816
internal_count=6878 2244 1070 1174 652 418 599 4634 336 575 546 163 106 149 552 486 99 387 312 58 75 254 450 116 334 82 69 297 233 111
cat_boundaries=0 1 2 3 4 5 6
cat_threshold=2 1 2 2 1 1
is_linear=0
shrinkage=1


Tree=2
num_leaves=31
num_cat=2
split_feature=5 5 5 5 0 5 1 1 1 1 1 1 5 1 1 1 1 1 1 1 0 1 1 1 1 1 2 3 1 1
split_gain=1572.27 128.02 71.7744 15.2668 16.1503 14.5483 10.3863 9.51797 7.18818 9.02298 7.17648 7.14946 7.11126 6.89773 6.36973 14.8232 11.2749 10.3951 6.30152 5.99609 7.5963 12.5733 9.80875 8.60504 8.36897 5.89324 5.55519 8.01952 7.06617 5.26689
threshold=0.66032150104049381 0.50211372458320791 0.97673705395506549 1.4513603833269231 0.66641341075057137 -0.13071738124593565 -1.5252746794462209 1.4657096212548864 0.77940514875207489 1.0882067483508633 -0.0088888428842815465 -0.61020204944247236 1.7677759362414951 -0.035094483217206235 -0.45650951019261682 0.74080494880222625 -0.98416361959880316 1.2351708123801031 -0.87509149496987326 1.4926235221373496 0.66641341075057137 0.012358973601873607 -0.21145136005229401 1.1232656455530192 1.0931645721976329 1.0577515447207075 0 1 -1.2207226431446638 0.22342061736434818
decision_type=2 2 2 2 2 2 2 2 2 2 2 2 2 2 2 2 2 2 2 2 2 2 2 2 2 2 9 9 2 2
left_child=1 5 19 6 12 -1 -4 8 10 -10 -8 18 14 -14 16 -16 -5 25 -6 20 21 22 26 -23 -22 -17 -2 -28 -29 -12
right_child=2 -3 3 4 11 -7 7 -9 9 -11 29 -13 13 -15 15 17 -18 -19 -20 -21 24 23 -24 -25 -26 -27 27 28 -30 -31
leaf_value=-2.1383279030733009 -1.9432971710097009 -1.9845306282258348 -1.9548236502002601 -1.6789199895754496 -1.8033327808386268 -2.1027467998124343 -1.7664124444043108 -1.9688558857365928 -1.6017840589922798 -1.7975906520110954 -1.9382728082856113 -1.7536174294498612 -1.687054672081119 -1.8873114149412713 -1.7696502934478642 -1.616713593943861 -1.4534218054109411 -1.747347024770197 -1.9583702591819705 -2.0323654193003846 -1.9432971710097009 -1.9484089139550793 -1.6527504024476782 -1.7753399028044119 -1.7643861679214583 -1.4300944070490957 -1.9432971710097009 -1.6280730227113691 -1.8138961310402171 -1.8155035973752418
leaf_weight=435.05964607000351 3.57233726978302 68.512325495481491 4.337838113307952 8.0377588570117933 12.503180444240568 156.1621720790863 23.602942675352093 2.9344199001789084 4.4654215872287732 4.9757554829120636 4.9757554829120698 31.895868480205536 3.3171703219413757 3.5723372697830191 15.692767292261125 4.5930050611495954 3.0620033740997306 4.0826711654663086 3.3171703219413748 2.8068364262580863 23.985693097114567 14.672099500894548 3.6999207437038448 3.5723372697830191 2.9344199001789084 2.679252952337265 3.0620033740997314 2.9344199001789129 6.7619241178035718 11.737679600715635
leaf_count=3410 28 537 34 63 98 1224 185 23 35 39 39 250 26 28 123 36 24 32 26 22 188 115 29 28 23 21 24 23 53 92
internal_value=-2.03703 -2.11393 -1.80405 -1.76537 -1.74034 -2.12893 -1.80609 -1.79384 -1.78352 -1.70498 -1.80192 -1.78088 -1.69739 -1.79089 -1.6805 -1.70668 -1.61671 -1.61965 -1.83584 -1.88925 -1.88309 -1.85447 -1.79977 -1.91452 -1.9238 -1.54796 -1.83308 -1.80221 -1.75766 -1.85205
internal_weight=0 659.734 217.785 149.783 92.7532 591.222 57.0298 52.692 49.7576 9.44118 40.3164 47.7162 45.037 6.88951 38.1475 27.0477 11.0998 11.3549 15.8204 68.002 65.1952 38.275 20.0306 18.2444 26.9201 7.27226 16.3307 12.7583 9.69634 16.7134
internal_count=6878 5171 1707 1174 727 4634 447 413 390 74 316 374 353 54 299 212 87 89 124 533 511 300 157 143 211 57 128 100 76 131
cat_boundaries=0 1 2
cat_threshold=2 2
is_linear=0
shrinkage=1


Tree=3
num_leaves=31
num_cat=2
split_feature=5 5 5 5 0 0 1 2 5 5 1 1 0 1 1 1 1 1 1 5 1 1 1 1 1 1 5 2 1 1
split_gain=721.206 253.554 104.734 25.872 16.7052 15.8267 11.8664 8.13908 8.0938 6.95749 5.03979 6.74269 7.96285 4.79916 5.35368 4.64888 4.64527 4.96705 6.99726 4.61917 12.4359 12.4086 7.24041 4.8389 7.3551 6.88233 5.79116 4.56445 4.51306 4.43862
threshold=1.0000000180025095e-35 0.97673705395506549 0.34390594812592196 1.6095681597842091 1.7653436956821802 0.66641341075057137 -0.59532857790216376 0 1.4513603833269231 -0.28892515770322147 -0.94662581047326233 -0.77735153913355959 0.66641341075057137 -1.4084116887723674 -1.5706033546166853 -1.0974853075249638 0.44616856019420809 1.1193702125305574 1.5882386963250481 0.50211372458320791 1.2656260160102588 1.4168396433367298 -0.10804531981967226 0.55984437839513823 0.85802206975084894 0.29991275671450673 0.66032150104049381 1 -0.2674039434658359 1.2001119151779471
decision_type=2 2 2 2 2 2 2 9 2 2 2 2 2 2 2 2 2 2 2 2 2 2 2 2 2 2 2 9 2 2
left_child=9 2 5 8 6 13 10 -8 -3 -1 15 12 -12 14 -2 -4 -15 -18 -19 20 -9 22 28 25 -25 26 -24 -13 -21 -26
right_child=1 3 4 -5 -6 -7 7 19 -10 -11 11 27 -14 16 -16 -17 17 18 -20 21 -22 -23 23 24 29 -27 -28 -29 -30 -31
leaf_value=-2.1870406661024653 -2.0782665619816845 -2.0506988405605289 -1.9363727187803454 -2.1722580866055314 -2.0511336225871415 -1.953342863239574 -1.899031664729494 -1.9189486972536034 -2.1066270519841863 -2.1538951163244966 -1.9559429780667512 -1.8486882414456867 -2.1607020207069652 -2.1013130343134834 -1.8828147485523892 -1.871091902599705 -2.0064892103070786 -2.1483074055350397 -1.9559429780667512 -1.7804352272322821 -1.6914095565191454 -2.0079452746102975 -1.7432063103886069 -1.6544296625306119 -1.8787195676995847 -2.0009449654602047 -1.9169412556590915 -2.011901971086437 -1.6049274763978141 -1.7219326436207925
leaf_weight=343.33037528395653 2.6860840171575546 54.576343439519405 34.30861858278513 39.558691889047623 7.2035889551043502 16.482788287103176 76.309205032885075 16.604883015155796 49.204175405204296 77.652247041463852 4.2733154818415642 4.3954102098941785 3.4186523854732513 28.203882180154324 2.930273473262786 15.99440937489271 15.261841006577017 7.2035889551043493 2.5639892891049385 3.4186523854732513 2.8081787452101699 3.2965576574206343 4.0291260257363337 3.1744629293680182 6.1047364026308042 3.1744629293680191 3.6628418415784836 2.8081787452101707 2.5639892891049447 2.5639892891049385
leaf_count=2812 22 447 281 324 59 135 625 136 403 636 35 36 28 231 24 131 125 59 21 28 23 27 33 26 50 26 30 23 21 21
internal_value=-2.0885 -1.99558 -1.93945 -2.10345 -1.90162 -2.03995 -1.89603 -1.87831 -2.07722 -2.18093 -1.93075 -1.98184 -2.04695 -2.06421 -1.97629 -1.91562 -2.07348 -2.04213 -2.09781 -1.84755 -1.88603 -1.8242 -1.80309 -1.82887 -1.78466 -1.87706 -1.82594 -1.91231 -1.70522 -1.83235
internal_weight=0 418.785 275.446 143.339 200.113 75.3324 192.91 127.711 103.781 420.983 65.1986 14.8956 7.69197 58.8497 5.61636 50.303 53.2333 25.0294 9.76758 51.4019 19.4131 31.9888 28.6923 22.7096 11.8432 10.8664 7.69197 7.20359 5.98264 8.66873
internal_count=6878 3430 2256 1174 1639 617 1580 1046 850 3448 534 122 63 482 46 412 436 205 80 421 159 262 235 186 97 89 63 59 49 71
cat_boundaries=0 1 2
cat_threshold=1 1
is_linear=0
shrinkage=1


Tree=4
num_leaves=31
num_cat=4
split_feature=4 5 5 5 5 5 0 0 1 1 5 1 5 0 1 1 3 1 0 1 1 1 1 2 1 1 3 1 0 1
split_gain=359.02 382.778 303.201 49.7001 33.3377 17.1846 14.8095 11.1889 10.7952 8.21513 5.64447 5.3232 5.46666 10.2282 8.3429 9.55591 5.21002 4.82335 8.86318 7.03256 8.63559 8.24983 5.7248 5.66276 4.69684 4.48477 4.03345 4.00354 3.81394 3.77629
threshold=0 -0.28892515770322147 0.50211372458320791 -0.13071738124593565 0.66032150104049381 -0.60534071061779315 -1.531447159112646 0.66641341075057137 0.89697639997546674 1.4926235221373496 0.97673705395506549 1.4055074745441136 0.34390594812592196 1.0000000180025095e-35 0.86793771744438797 0.52938917476498248 1 -0.11087836201782629 0.66641341075057137 -1.5252746794462209 -1.394954738331136 -1.463656011636371 -0.0088888428842815465 2 0.25458408154404244 0.39269488870405095 3 0.78223819095022884 0.66641341075057137 1.4168396433367298
decision_type=9 2 2 2 2 2 2 2 2 2 2 2 2 2 2 2 9 2 2 2 2 2 2 9 2 2 9 2 2 2
left_child=1 5 3 17 -4 -1 -5 9 -9 11 -6 12 -8 16 15 -15 -14 19 22 -3 21 -21 -19 -20 -24 -26 -10 -27 -7 -29
right_child=-2 2 4 6 10 28 7 8 26 -11 -12 -13 13 14 -16 -17 -18 18 23 20 -22 -23 24 -25 25 27 -28 29 -30 -31
leaf_value=-2.1563055519369314 -2.1678785216448242 -2.0412908021111842 -2.0337250720722904 -2.0990959611768201 -2.11457135809203 -2.0903162790462715 -1.8180844504388607 -1.9298692636223493 -1.857365295993251 -1.9603635794192935 -2.1761695065976681 -1.6906061704463251 -1.8322288101571336 -1.8871437112694878 -1.9944961495342406 -1.7209538789557841 -1.6738626071307616 -2.1409837576011941 -1.786519915858936 -1.9333878385219967 -1.9412195052341152 -1.6835690206470308 -1.8890083938199924 -1.9834856430455481 -2.1357058952517227 -1.9381482633862257 -1.7040940408949736 -2.0475935453114871 -2.1635246280520604 -1.9333878385219967
leaf_weight=135.92459335923195 277.40973826497793 5.1898481100797644 63.884558878839016 2.5949240550398818 47.079336427152157 71.051491983234882 55.852651089429855 31.262656472623348 4.0777378007769576 5.5605515465140334 21.747934937477112 2.4713562428951255 4.9427124857902509 27.679189920425419 6.0548227950930587 3.9541699886322013 3.5834665521979332 2.8420596793293944 3.3363309279084197 2.4713562428951263 22.983613058924675 2.842059679329398 3.8306021764874485 2.5949240550398827 2.471356242895129 8.4026112258434313 2.9656274914741516 13.221755899488928 7.9083399772644034 3.7070343643426886
leaf_count=1100 2245 42 517 21 381 575 452 253 33 45 176 20 40 224 49 32 29 23 27 20 186 23 31 21 20 68 24 107 64 30
internal_value=-2.07451 -2.02927 -1.96588 -1.89515 -2.08575 -2.13475 -1.86226 -1.85812 -1.90467 -1.84192 -2.13404 -1.83562 -1.83914 -1.86458 -1.88695 -1.86637 -1.76567 -1.96235 -1.98561 -1.93428 -1.91466 -1.79976 -2.00503 -1.87269 -1.99282 -2.00712 -1.79283 -1.99458 -2.09765 -2.02258
internal_weight=0 572.49 357.605 224.893 132.712 214.884 151 148.405 38.306 110.099 68.8273 104.538 102.067 46.2144 37.6882 31.6334 8.52618 73.8936 40.4067 33.4869 28.297 5.31342 34.4754 5.93125 31.6334 27.8028 7.04337 25.3314 78.9598 16.9288
internal_count=6878 4633 2894 1820 1074 1739 1222 1201 310 891 557 846 826 374 305 256 69 598 327 271 229 43 279 48 256 225 57 205 639 137
cat_boundaries=0 1 2 3 4
cat_threshold=1 1 1 1
is_linear=0
shrinkage=1


Tree=5
num_leaves=31
num_cat=10
split_feature=4 5 5 5 5 5 0 1 1 1 3 5 3 1 2 3 2 1 2 2 1 1 1 1 2 1 1 1 1 2
split_gain=353.721 309.412 192.906 99.6223 22.4443 18.8678 13.0512 10.8084 8.35081 11.4461 10.9875 8.23328 7.52019 6.83333 5.30481 5.27118 6.54105 5.27571 5.17547 5.01165 4.96339 6.10161 9.79231 6.21353 9.57789 5.61373 5.66259 5.13447 5.61656 4.97572
threshold=0 0.50211372458320791 -0.60534071061779315 0.34390594812592196 -0.76354848707507894 1.0000000180025095e-35 1.0000000180025095e-35 -0.85384367848371812 -1.0755292304892701 -1.3602499714037493 1 -0.28892515770322147 2 1.2468571114474882 3 4 5 -1.2037243899557397 6 7 1.5510550174742763 0.70149648830283928 -0.18666224081844632 -0.98628840124741857 8 0.79002905699515247 0.9812594053705489 -0.76106154649417401 -0.42676256711199956 9
decision_type=9 2 2 2 2 2 2 2 2 2 9 2 9 2 9 9 9 2 9 9 2 2 2 2 9 2 2 2 2 9
left_child=1 2 4 5 -1 7 12 8 9 10 -4 19 -7 -5 -6 17 -17 -11 -12 -9 21 22 23 -8 -25 -23 -27 -26 -29 -28
right_child=-2 -3 3 13 14 6 20 11 -10 15 18 -13 -14 -15 -16 16 -18 -19 -20 -21 -22 25 -24 24 27 26 29 28 -30 -31
leaf_value=-2.1675217047718736 -2.2039440612285013 -2.2001298925257089 -1.8564601967686718 -2.0751636392699675 -2.137592804617944 -1.7804384089660306 -2.0362150435283097 -1.9629087066296391 -2.0526078206577991 -2.0296518110739585 -1.9106845870066622 -1.8827563057469614 -1.9451535146980978 -2.1924660337134831 -2.0704461972954653 -1.9076510546856558 -1.6896159191133175 -1.8318127466604948 -2.0565188445128237 -1.9027944142702513 -2.1247055224818063 -1.8370429748001611 -2.0897926320794187 -2.0874159329675193 -1.7938935926479136 -2.0918298027467612 -1.9941067258343392 -2.0226317152399322 -1.8318127466604956 -1.8402392253299571
leaf_weight=62.093829184770584 269.11321721971035 128.74280413985252 4.794890284538269 62.573318213224411 14.984032139182091 3.7160399705171585 12.586586996912953 32.245637163519859 9.4699083119630796 2.7570619136095047 2.9968064278364182 55.141238272190094 10.90837539732456 5.3942515701055518 54.781621500849724 2.637189656496048 2.8769341707229614 2.6371896564960497 12.946203768253328 24.334068194031715 3.4762954562902442 3.4762954562902477 14.025054082274439 3.2365509420633316 3.5961677134036956 3.3564231991767874 5.9936128556728336 3.7160399705171523 2.6371896564960586 3.2365509420633325
leaf_count=518 2245 1074 40 522 125 31 105 269 79 23 25 460 91 45 457 22 24 22 108 203 29 29 117 27 30 28 50 31 22 27
internal_value=-2.10985 -2.06425 -2.02325 -1.97828 -2.12379 -1.94645 -1.98791 -1.92639 -1.97022 -1.94557 -1.98919 -1.91025 -1.9033 -2.08447 -2.08487 -1.86265 -1.79389 -1.93293 -2.02911 -1.93705 -2.00877 -2.00155 -2.02255 -1.98596 -1.93799 -1.94953 -1.9806 -1.88938 -1.94342 -1.94015
internal_weight=0 555.368 426.625 294.766 131.859 226.798 73.9612 152.837 41.1162 31.6463 20.7379 111.721 14.6244 67.9676 69.7657 10.9084 5.51412 5.39425 15.943 56.5797 59.3368 55.8605 39.7976 25.7725 13.1859 16.0629 12.5866 9.9494 6.35323 9.23016
internal_count=6878 4633 3559 2459 1100 1892 617 1275 343 264 173 932 122 567 582 91 46 45 133 472 495 466 332 215 110 134 105 83 53 77
cat_boundaries=0 1 2 3 4 5 6 7 8 9 10
cat_threshold=1 2 2 2 1 1 2 1 2 1
is_linear=0
shrinkage=1


Tree=6
num_leaves=31
num_cat=7
split_feature=5 5 5 5 5 5 1 0 1 1 1 2 1 1 1 1 2 2 1 1 1 3 1 1 2 0 3 3 1 1
split_gain=716.627 351.888 36.338 29.6679 28.7957 23.5305 6.92671 6.19353 4.65728 4.64591 7.47896 5.08506 4.50673 4.37053 4.29756 7.1508 18.116 7.37763 4.28824 6.94185 4.22829 4.17782 6.10251 10.237 4.58733 4.09568 6.51487 10.7631 9.43556 5.11724
threshold=-0.13071738124593565 -1.0008601517610078 -1.3172757046755794 -0.28892515770322147 -0.76354848707507894 0.34390594812592196 0.74080494880222625 1.0000000180025095e-35 -1.6541780994622288 -1.463656011636371 -1.3719362704711346 0 1.4926235221373496 -0.039344046514437271 -0.53795947338954486 -0.28581871775383705 1 2 -0.93458538113110767 -1.0755292304892701 1.2656260160102588 3 1.2351708123801031 1.4168396433367298 4 1.0000000180025095e-35 5 6 0.85802206975084894 0.20500584307634706
decision_type=2 2 2 2 2 2 2 2 2 2 2 9 2 2 2 2 9 9 2 2 2 9 2 2 9 2 9 9 2 2
left_child=1 2 -1 4 20 -2 -4 12 -5 11 -11 -9 -6 14 18 16 -16 -17 19 -12 -3 24 -23 -24 -15 26 -10 28 -28 -29
right_child=5 3 6 8 7 -7 -8 9 25 10 13 -13 -14 21 15 17 -18 -19 -20 -21 -22 22 23 -25 -26 -27 27 29 -30 -31
leaf_value=-2.0849964407279642 -2.043177471201 -1.8981279347753977 -2.002743207891263 -1.7786558941137729 -1.7806366892137593 -2.1012279888599195 -1.9226550421678041 -1.6964710144926918 -1.9779321344853193 -1.9960481563372781 -1.8377713338412174 -1.8431942219613762 -1.9145260580034638 -1.7327619720888108 -1.8511199815216082 -1.735177441669072 -1.4887995444824331 -1.9291582294992766 -1.8712946422203802 -1.6657791425746453 -1.827128493123068 -1.8854534028480276 -1.641604250538085 -1.8601779924475874 -1.8566335533895955 -1.9256067315633996 -1.9755394523539285 -1.6735829673724125 -1.7699602036248328 -1.8511199815216082
leaf_weight=86.085332408547401 86.085332408547401 60.982586622238159 36.274124801158905 2.7599877566099158 57.696886911988258 369.70693139731884 15.377074643969534 5.3885475248098356 4.7314075827598572 2.7599877566099158 7.4913953393697739 4.205695629119873 2.6285597681999198 5.9142594784498215 2.7599877566099158 4.5999795943498603 2.7599877566099167 3.417127698659896 11.565662980079653 3.4171276986598951 9.7256711423397046 30.097009345889091 3.022843733429907 7.3599673509597778 6.0456874668598175 54.148331224918365 6.9656833857297897 3.9428396522998854 3.2856997102499008 2.7599877566099167
leaf_count=655 655 464 276 21 439 2813 117 41 36 21 57 32 20 45 21 35 21 26 88 26 74 229 23 56 46 412 53 30 25 21
internal_value=-2.00197 -1.91218 -2.04521 -1.85316 -1.83516 -2.09026 -1.9789 -1.81181 -1.90626 -1.82698 -1.83394 -1.76079 -1.78647 -1.82889 -1.80206 -1.75755 -1.66996 -1.81786 -1.82887 -1.78389 -1.88836 -1.84731 -1.86265 -1.79654 -1.79538 -1.9109 -1.87418 -1.84522 -1.90965 -1.74669
internal_weight=0 448.169 137.737 310.433 231.839 455.792 51.6512 161.131 78.5939 100.805 91.211 9.59424 60.3254 88.451 36.0113 13.5371 5.51998 8.01711 22.4742 10.9085 70.7083 52.4398 40.4798 10.3828 11.9599 75.8339 21.6856 16.9542 10.2514 6.70283
internal_count=6878 3410 1048 2362 1764 3468 393 1226 598 767 694 73 459 673 274 103 42 61 171 83 538 399 308 79 91 577 165 129 78 51
cat_boundaries=0 1 2 3 4 5 6 7
cat_threshold=1 1 1 2 1 2 1
is_linear=0
shrinkage=1


Tree=7
num_leaves=31
num_cat=6
split_feature=5 5 5 5 5 3 1 5 5 1 1 1 0 2 1 1 1 1 3 1 2 1 2 1 0 3 0 1 1 1
split_gain=1086.76 97.0442 145.469 26.8452 18.0036 18.8828 13.9705 13.5611 13.1644 10.2471 24.4692 11.1499 10.7091 8.99977 8.74741 8.11481 9.94151 7.60272 7.25695 5.86181 15.4027 8.20735 7.36058 6.46244 7.07325 6.44007 5.91855 6.20294 5.59082 6.36804
threshold=-0.28892515770322147 -1.5545873693615084 -0.60534071061779315 -0.76354848707507894 -2.1083145869620084 0 0.70149648830283928 -0.13071738124593565 -1.0008601517610078 0.73124343138345649 0.95576202558716272 0.035731571736644284 1.0000000180025095e-35 1 1.5510550174742763 -0.82020130238063915 -1.4856120886720647 -0.22703309214214112 2 -0.035094483217206235 3 0.70149648830283928 4 0.40473531804620555 1.0000000180025095e-35 5 1.0000000180025095e-35 1.1193702125305574 -0.53795947338954486 -1.4346173291052924
decision_type=2 2 2 2 2 9 2 2 2 2 2 2 2 9 2 2 2 2 9 2 9 2 9 2 2 9 2 2 2 2
left_child=1 4 3 8 -1 6 -6 -2 -3 11 13 12 17 -11 -12 16 -10 -5 -4 22 21 23 -17 -21 -25 -22 -23 -28 29 -14
right_child=7 2 18 9 5 -7 -8 -9 15 10 14 -13 28 -15 -16 19 -18 -19 -20 20 25 26 -24 24 -26 -27 27 -29 -30 -31
leaf_value=-2.1536993881080431 -2.1266194203264188 -1.8744616180258051 -2.0888730943202702 -2.0155241537439408 -1.8112630038272985 -2.0613467454396788 -2.0931239988309436 -2.172959613764391 -1.857157122954139 -1.6354432798484169 -1.9739724080416661 -2.0285102502687047 -1.9467334747446206 -1.8662066675706992 -1.7862086931603078 -1.814925914743525 -1.7013172256343871 -1.8277461029503186 -2.014272240457065 -1.8969751192670037 -1.8565915264156041 -2.0123568131281449 -1.9613459590000613 -1.8373612441054139 -1.6085208846141503 -1.7013172256343871 -1.9719732202767455 -1.7508249737095578 -1.9450508250424792 -1.7982298556835152
leaf_weight=14.857519268989561 74.039971023797989 76.14478625357151 16.467083856463432 12.628891378641127 6.0668203681707382 30.210289180278778 2.4762532114982605 429.38230687379837 6.3144456893205669 4.8286937624216106 12.505078718066214 12.381266057491301 3.9620051383972141 2.6000658720731735 3.0953165143728247 6.6858836710453016 11.638390094041823 2.6000658720731726 62.649206250905991 4.3334431201219576 3.4667544960975647 4.9525064229965192 7.0573216527700424 2.9715038537979126 2.4762532114982605 11.638390094041823 2.4762532114982605 2.6000658720731735 7.4287596344947842 10.64788880944252
leaf_count=120 598 615 133 102 49 244 20 3468 51 39 101 100 32 21 25 54 94 21 506 35 28 40 57 24 20 94 20 21 60 86
internal_value=-2.0722 -1.93636 -1.91383 -1.87125 -2.06011 -2.02423 -1.89296 -2.16614 -1.84606 -1.92072 -1.86559 -1.94629 -1.91898 -1.71621 -1.93672 -1.81359 -1.75613 -1.98346 -2.0298 -1.83479 -1.81302 -1.87101 -1.89011 -1.80584 -1.73334 -1.73695 -1.93458 -1.8587 -1.87442 -1.8385
internal_weight=0 348.161 294.55 215.434 53.6109 38.7534 8.54307 503.422 142.756 72.678 23.0292 49.6489 37.2676 7.42876 15.6004 66.6112 17.9528 15.229 79.1163 48.6584 34.9152 19.81 13.7432 9.7812 5.44776 15.1051 10.0288 5.07632 22.0387 14.6099
internal_count=6878 2812 2379 1740 433 313 69 4066 1153 587 186 401 301 60 126 538 145 123 639 393 282 160 111 79 44 122 81 41 178 118
cat_boundaries=0 1 2 3 4 5 6
cat_threshold=2 1 2 1 1 2
is_linear=0
shrinkage=1


Tree=8
num_leaves=31
num_cat=4
split_feature=5 5 5 5 5 5 3 1 1 1 1 3 1 0 2 1 3 0 0 1 1 1 1 1 1 1 1 1 5 0
split_gain=2681.66 282.715 150.18 31.8527 26.9647 20.6093 17.0425 14.2389 8.29009 8.55127 8.16737 8.2483 7.80796 7.23197 8.94964 6.38594 5.52853 5.15512 4.45636 7.37453 8.21638 5.00292 4.9764 4.4329 5.26257 4.03987 4.77007 4.76864 3.95275 3.79442
threshold=-1.0008601517610078 -1.5545873693615084 -0.76354848707507894 -1.3172757046755794 -0.60534071061779315 -2.1083145869620084 0 0.70149648830283928 0.95576202558716272 0.61154739851144913 -0.85384367848371812 1 -0.71077504747694009 1.0000000180025095e-35 2 -1.4721551382308331 3 -1.0000000180025095e-35 1.0000000180025095e-35 0.32399361539881594 0.058395909321876452 0.8757285834893116 1.3906340030038049 -1.5104012079059124 -1.1137753001643496 0.089559373501570685 -0.32123174523076231 0.50035049223390382 -0.28892515770322147 1.0000000180025095e-35
decision_type=2 2 2 2 2 2 9 2 2 2 2 9 2 2 9 2 9 2 2 2 2 2 2 2 2 2 2 2 2 2
left_child=1 5 18 8 -4 -1 7 -7 9 17 11 15 -12 14 -8 -5 -13 -3 21 20 23 -2 -23 -20 -25 26 -14 -27 -6 -29
right_child=2 3 4 10 28 6 13 -9 -10 -11 12 16 25 -15 -16 -17 -18 -19 19 -21 -22 22 -24 24 -26 27 -28 29 -30 -31
leaf_value=-1.3931465972479735 -2.0210000141065536 -1.7443292820673428 -2.1270391635990635 -1.9712491815209994 -2.1712783966555547 -1.7421615713474208 -1.3975119889307257 -1.454885708189753 -1.8066115523429207 -1.5157300494077384 -2.0389572974167458 -1.7841609665459102 -1.8633136728815247 -1.4253353644911235 -1.5644378148232865 -1.7716884188809039 -1.5873116273112511 -1.6308219981937784 -1.9311588497406231 -2.102814442374449 -1.8429601198237953 -1.8664797811349494 -2.0389572974167458 -2.1500223647194181 -2.0200182443010224 -1.9693782993712485 -1.7285401458776402 -1.9025647409548023 -2.1955525829869522 -1.8083723826015099
leaf_weight=14.577469825744627 21.744725823402408 11.297539114952093 71.308123230934143 2.6725361347198486 77.625026822090149 5.9524668455123901 4.0088042020797729 2.4295783042907715 6.6813403367996207 2.7940150499343863 2.5510572195053092 2.9154939651489258 6.3169035911560059 9.4753553867340106 16.156695723533634 4.0088042020797712 2.7940150499343872 6.1954246759414699 3.4014096260070827 15.063385486602781 2.5510572195053092 4.8591566085815421 2.5510572195053101 4.3732409477233913 10.811623454093931 4.8591566085815456 4.4947198629379255 8.8679608106613159 493.93326926231384 8.260566234588623
leaf_count=120 179 93 587 22 639 49 33 20 55 23 21 24 52 78 133 33 23 51 28 124 21 40 21 36 89 40 37 73 4066 68
internal_value=-2.09438 -1.67184 -2.17034 -1.79688 -2.18502 -1.49424 -1.533 -1.65889 -1.71 -1.67818 -1.84595 -1.77609 -1.87044 -1.49739 -1.53125 -1.85151 -1.68783 -1.70413 -2.02592 -2.04935 -2.01125 -1.99682 -1.92586 -2.03435 -2.05746 -1.85733 -1.80728 -1.88194 -2.19226 -1.85714
internal_weight=0 127.31 708.222 74.7095 642.866 52.6004 38.0229 8.38205 26.9683 20.287 47.7412 12.3908 35.3504 29.6409 20.1655 6.68134 5.70951 17.493 65.3557 36.2007 21.1373 29.1549 7.41021 18.5863 15.1849 32.7993 10.8116 21.9877 571.558 17.1285
internal_count=6878 1048 5830 615 5292 433 313 69 222 167 393 102 291 244 166 55 47 144 538 298 174 240 61 153 125 270 89 181 4705 141
cat_boundaries=0 1 2 3 4
cat_threshold=2 1 2 2
is_linear=0
shrinkage=1


Tree=9
num_leaves=1
num_cat=0
split_feature=
split_gain=
threshold=
decision_type=
left_child=
right_child=
leaf_value=0
leaf_weight=
leaf_count=
internal_value=
internal_weight=
internal_count=
is_linear=0
shrinkage=1


Tree=10
num_leaves=31
num_cat=5
split_feature=5 5 0 0 5 5 1 0 1 1 1 1 1 0 5 0 1 2 3 1 4 3 1 1 2 1 1 5 1 1
split_gain=1002.25 68.2521 32.5415 14.5184 13.2631 12.8838 12.762 12.5988 10.4791 8.31891 8.03373 6.74925 13.11 6.31838 4.4301 8.04618 4.41489 3.80701 3.70065 3.68002 6.36977 8.13115 9.10054 8.05204 4.29797 3.00298 10.4507 2.83471 5.81324 3.25915
threshold=0.50211372458320791 0.66032150104049381 0.66641341075057137 1.0000000180025095e-35 1.6095681597842091 0.34390594812592196 1.5747817458838165 1.7653436956821802 1.1232656455530192 -1.7250041544160795 -1.4856120886720647 -0.74052199055755741 0.49255962618898019 0.66641341075057137 0.97673705395506549 1.0000000180025095e-35 -1.3283782466745164 0 1 0.83252468996746276 2 3 -0.77735153913355959 -1.0000000180025095e-35 4 0.74080494880222625 0.92389030085792989 1.7677759362414951 -0.035094483217206235 0.035731571736644284
decision_type=2 2 2 2 2 2 2 2 2 2 2 2 2 2 2 2 2 9 9 2 9 9 2 2 9 2 2 2 2 2
left_child=5 3 4 -2 6 -1 8 11 14 -4 -11 13 -13 16 15 -3 -5 -14 -15 20 21 23 -23 -17 -22 -16 -27 29 -29 -6
right_child=1 2 9 7 27 -7 -8 -9 -10 10 -12 12 17 18 25 19 -18 -19 -20 -21 24 22 -24 -25 -26 26 -28 28 -30 -31
leaf_value=-0.09530319485190368 -0.085100258291250508 -0.032542963718274323 0.33317786357806961 -0.061258951873362666 0.2313015238931608 -0.046477488505934257 0.32773515799023067 0.2854941243358235 0.0041527533028511794 0.10016927731947015 0.20839538923811493 -0.029946870119292847 0.0070755182683189576 0.11966439005628998 0.14821050726710858 0.01360780837029155 0.096400113419246578 0.10936616112241318 0.25352523474491345 0.20688916659400008 -0.037661061856230783 0.34158488491405192 0.11120039279376828 0.19655942204872356 0.11182863763079032 -0.026988268266503718 0.21548976493778876 0.16153398449423492 0.33374339059361974 0.13248798297723438
leaf_weight=422.24188474565744 6.7968990728259078 4.4654951542615882 4.9892051815986624 2.5096460580825806 5.9574491828680056 61.976351216435432 2.7858809158205977 2.577015407383441 8.4303897842764837 7.3510375618934622 102.44700811058283 16.903130747377872 4.6252554208040237 5.3696102052927017 46.133846618235111 6.9374730139970833 6.0771968886256218 17.052919514477257 3.3560284525156021 3.5593641847372046 4.6624323800206247 3.155851811170578 3.7543479427695354 3.6826637312769765 3.2736824601888657 4.0710517391562453 3.1549308151006699 3.7547093778848648 4.1014733612537375 7.5910744816064835
leaf_count=4065 62 41 31 21 42 569 21 20 65 53 710 143 39 39 345 56 51 138 24 28 37 25 30 29 26 35 26 26 28 53
internal_value=0 0.143668 0.168864 0.0532322 0.132331 -0.0890539 0.116765 0.0693125 0.110597 0.206888 0.20115 0.0593453 0.0360678 0.11122 0.120929 0.0924214 0.0503217 0.0875414 0.17115 0.111647 0.0983349 0.131985 0.216416 0.0770485 0.0240041 0.138822 0.0788799 0.203649 0.251439 0.175937
internal_weight=0 299.527 234.259 65.2677 119.472 484.218 98.0674 58.4708 95.2815 114.787 109.798 55.8938 38.5813 17.3125 86.8511 33.4913 8.58684 21.6782 8.72564 29.0258 25.4665 17.5303 6.9102 10.6201 7.93611 53.3598 7.22598 21.4047 7.85618 13.5485
internal_count=6878 2244 1707 537 913 4634 764 475 743 794 763 455 320 135 678 272 72 177 63 231 203 140 55 85 63 406 61 149 54 95
cat_boundaries=0 1 2 3 4 5
cat_threshold=2 1 1 1 1
is_linear=0
shrinkage=0.1


Tree=11
num_leaves=31
num_cat=5
split_feature=5 5 5 5 5 0 1 1 0 1 1 0 1 1 1 0 3 3 1 1 1 1 2 5 1 2 1 3 1 1
split_gain=1135.71 103.733 19.5539 14.8279 6.0913 5.58135 6.54234 5.27124 5.09769 4.89446 5.47323 5.69084 3.94485 3.98336 5.40108 8.33916 7.38791 6.14369 4.52652 9.15942 3.85168 5.67019 6.22449 5.85132 5.49914 3.83852 7.5306 7.04214 7.65753 4.70925
threshold=0.50211372458320791 0.97673705395506549 0.66032150104049381 -0.13071738124593565 1.4513603833269231 1.7653436956821802 0.9812594053705489 -1.5252746794462209 0.66641341075057137 1.4657096212548864 1.167531929899176 1.0000000180025095e-35 1.4926235221373496 1.1080380437379416 0.13701283032065056 0.66641341075057137 0 1 -0.38072563139199672 -1.1311276836280428 -0.11087836201782629 -1.1654783202806602 2 1.6095681597842091 0.14905325966280514 3 -1.0539272837283458 4 -0.10592053817105675 -0.78585066572802165
decision_type=2 2 2 2 2 2 2 2 2 2 2 2 2 2 2 2 9 9 2 2 2 2 9 2 2 9 2 9 2 2
left_child=3 2 -2 -1 7 6 8 -3 20 10 11 -9 13 14 15 17 -16 18 19 -4 21 -6 23 -23 -22 27 -27 -13 -29 -28
right_child=1 4 12 -5 5 -7 -8 9 -10 -11 -12 25 -14 -15 16 -17 -18 -19 -20 -21 24 22 -24 -25 -26 26 29 28 -30 -31
leaf_value=-0.099590423989380297 0.045134327626828501 0.068510452929845297 0.29352691993512764 -0.06237059990598999 0.17479607999067817 0.11978091725738255 0.26293815392833264 0.27446492730955602 0.17608007659229016 0.056708643190304234 0.30887694066007704 0.088185397635762192 0.0025596839890226269 0.18830968057257674 0.19682039559573997 0.083087685117994414 0.046457940919307023 0.11168887960332277 0.30120864787649665 0.10532630676734817 0.12931616606739238 0.30082874266438903 0.35431976784290381 0.13401414954692689 0.22948965364202167 0.24919808691103895 0.034819766819160707 0.1576382442706977 0.34757113229670411 0.14765905950258987
leaf_weight=394.54948037862778 71.538967177271843 4.6492704749107352 4.2328749001026118 146.88376997411251 6.3514406383037594 6.6323226094245902 22.062258169054985 5.5048968791961661 40.698521718382835 3.1226612031459799 3.3730532228946677 3.0826796591281891 2.8546162545680991 8.1472181081771833 3.9931157529354095 18.213446870446205 17.987442761659626 10.119012773036957 4.1586536765098598 6.6465531885623932 8.0418591797351855 4.865745529532429 7.3175680935382852 3.7029992043972015 17.203157588839531 6.7422835230827323 4.2369885146617845 3.7802789211273176 4.8410236686468124 29.10382848978043
leaf_count=3410 537 34 26 1224 38 43 133 35 263 23 22 20 22 53 29 133 131 68 26 45 51 28 42 22 107 43 27 24 31 188
internal_value=0 0.145157 0.0826995 -0.0894932 0.195002 0.208875 0.214235 0.171309 0.20205 0.178802 0.185086 0.177798 0.117896 0.122376 0.114156 0.134622 0.0737737 0.171933 0.21247 0.17855 0.22431 0.254656 0.286584 0.22874 0.197579 0.167523 0.152811 0.217906 0.264289 0.133319
internal_weight=0 333.205 147.892 541.433 185.313 116.876 110.244 68.437 88.1813 63.7877 60.665 57.292 76.3529 73.4983 65.3511 43.3705 21.9806 25.1571 15.0381 10.8794 47.4828 22.2378 15.8863 8.56874 25.245 51.7871 40.0831 11.704 8.6213 33.3408
internal_count=6878 2244 1070 4634 1174 727 684 447 551 413 390 368 533 511 458 298 160 165 97 71 288 130 92 50 158 333 258 75 55 215
cat_boundaries=0 1 2 3 4 5
cat_threshold=2 1 1 2 2
is_linear=0
shrinkage=0.1


Tree=12
num_leaves=31
num_cat=1
split_feature=5 5 5 5 0 0 5 5 5 1 1 0 1 1 1 5 1 1 1 1 1 1 0 1 1 0 1 1 1 3
split_gain=582.396 162.72 58.9909 22.9309 10.6478 9.56874 7.1067 6.47708 7.16227 11.8902 7.43408 7.0077 13.2568 7.956 9.93975 6.3048 4.49313 8.02507 4.4508 4.43557 6.62942 8.76382 6.45803 5.22667 4.42645 4.21231 4.47746 8.23759 6.87807 4.16041
threshold=1.0000000180025095e-35 0.97673705395506549 0.34390594812592196 1.6095681597842091 0.66641341075057137 1.7653436956821802 -0.28892515770322147 0.66032150104049381 0.50211372458320791 1.1264528180259425 1.0421698126308605 0.66641341075057137 -0.77735153913355959 0.96426115218162478 0.54709568850344514 1.4513603833269231 0.29991275671450673 -0.45650951019261682 -1.181768312920046 -0.57089358894308539 -0.10804531981967226 0.035731571736644284 0.66641341075057137 1.4345461570751923 -0.92608625453664561 0.66641341075057137 1.0000000180025095e-35 -1.1137753001643496 0.37038468139358804 0
decision_type=2 2 2 2 2 2 2 2 2 2 2 2 2 2 2 2 2 2 2 2 2 2 2 2 2 2 2 2 2 9
left_child=6 2 4 15 -2 7 -1 8 9 10 25 16 -13 14 -14 -3 17 18 -10 24 -21 -22 23 -23 -9 29 27 -27 -28 -4
right_child=1 3 5 -5 -6 -7 -8 19 11 -11 -12 12 13 -15 -16 -17 -18 -19 -20 20 21 22 -24 -25 -26 26 28 -29 -30 -31
leaf_value=-0.096754734015199517 0.021902533166369861 0.034463438668834723 0.13920158195769125 -0.080793450154642343 0.10896210178799444 0.031479012483360692 -0.06207744435820764 0.10807814881183281 0.25221608786994548 0.25183621318878602 -0.034269171653599884 0.032102875091881387 0.17565374969989753 0.07869473702799587 0.37764308470486835 -0.015052149649644984 0.16591179004386222 0.28327728264343394 0.13954116460049895 0.2235395105528899 -0.011258030942411269 0.18975105644434334 0.077631442953304708 0.042225475392012074 0.0013878820147266466 0.23314058287363748 0.35232304343883769 0.063270574048483505 0.15735928893150214 0.079904062777003848
leaf_weight=311.54190881550312 59.816016897559166 55.762338414788246 28.758540824055672 36.248416803777218 18.360652953386307 7.4849092811346045 72.934116698801517 21.217051595449451 5.3324232697486869 8.0972049981355649 2.8503272235393515 8.1308855414390582 9.2412770390510577 4.9041604697704306 3.3084098398685446 47.722550146281719 20.307521030306816 13.604499667882918 10.234175562858583 7.9081801623105994 4.3160147070884696 19.338998958468441 10.994843825697897 2.7420532852411261 4.7613869309425345 4.7460542619228372 2.8463488817214957 7.1636803299188623 4.967435285449028 20.103192672133446
leaf_count=2812 482 447 204 324 135 59 636 152 38 53 20 61 62 34 22 403 140 89 71 54 31 133 78 20 35 34 20 51 35 143
internal_value=0 0.0773153 0.117531 -0.0123464 0.0423494 0.142717 -0.0901765 0.146404 0.157902 0.136991 0.123974 0.180058 0.137567 0.186698 0.228903 0.0116291 0.202029 0.227172 0.178139 0.121465 0.140356 0.122763 0.140251 0.171431 0.0885237 0.13055 0.169557 0.130964 0.228379 0.114805
internal_weight=0 451.27 311.536 139.733 78.1767 233.36 384.476 225.875 154.596 79.5328 71.4356 75.0634 25.5847 17.4538 12.5497 103.485 49.4786 29.1711 15.5666 71.2785 45.3001 37.3919 33.0759 22.0811 25.9784 68.5853 19.7235 11.9097 7.81378 48.8617
internal_count=6878 3430 2256 1174 617 1639 3448 1580 1077 560 507 517 179 118 84 850 338 198 109 503 316 262 231 153 187 487 140 85 55 347
cat_boundaries=0 1
cat_threshold=1
is_linear=0
shrinkage=0.1


Tree=13
num_leaves=31
num_cat=2
split_feature=4 5 5 5 5 5 5 0 1 1 1 0 2 1 1 1 1 1 1 1 1 1 1 1 1 0 1 1 1 0
split_gain=299.238 282.144 189.175 27.2339 24.8128 16.2486 5.5405 4.35066 5.54909 5.17504 4.79105 3.56069 3.45354 4.48439 9.87091 3.15023 3.90211 3.20627 3.11954 7.1981 6.25261 5.11686 3.0796 2.87773 6.50547 5.12043 4.59529 4.45971 4.19536 5.02048
threshold=0 -0.28892515770322147 0.50211372458320791 0.66032150104049381 -0.13071738124593565 -0.60534071061779315 0.97673705395506549 0.66641341075057137 0.89697639997546674 0.68166519291576111 0.52938917476498248 0.66641341075057137 1 1.1193702125305574 1.2822701389244135 -0.94662581047326233 -1.1137753001643496 -1.4856120886720647 0.31266144660619988 0.035731571736644284 -0.14062530509844348 0.62996217279945033 0.99613287691085739 -0.11087836201782629 0.058395909321876452 0.66641341075057137 0.25458408154404244 -1.5252746794462209 -1.394954738331136 1.0000000180025095e-35
decision_type=9 2 2 2 2 2 2 2 2 2 2 2 9 2 2 2 2 2 2 2 2 2 2 2 2 2 2 2 2 2
left_child=1 5 4 -4 23 -1 -5 9 15 10 -6 -7 13 22 -15 16 17 -9 19 20 -17 -20 -11 27 -25 26 -26 -3 29 -29
right_child=-2 2 3 6 7 11 -8 8 -10 12 -12 -13 -14 14 -16 18 -18 -19 21 -21 -22 -23 -24 24 25 -27 -28 28 -30 -31
leaf_value=-0.078934024379275658 -0.0910326078483778 0.027876399749082043 0.035563342111458923 -0.036403691528583533 0.17556848790721591 -0.013578963586926252 -0.10006919451696342 0.19337648651182615 0.20263506715642188 0.14765215132734796 0.28290011191607572 -0.086828998696224416 0.10252924943992635 0.31895833979410204 0.1283173087729996 0.065396915463192526 0.25423265483099161 0.062377787678395628 0.22666628767858488 -0.051230872454299164 0.22292863811432834 0.061868937655955004 0.032728663229905273 -0.049867948068727713 0.17781131495210004 0.16656368001042166 0.057275003448254827 0.29290766624617892 0.10791761010126649 0.11754382120605678
leaf_weight=125.69171752035618 252.06768143922091 5.3777405172586432 66.033544853329659 44.957083716988564 88.929597109556198 69.537214778363705 19.640909858047962 3.3620897233486176 8.7398890703916532 11.826818451285364 4.3629032894968978 7.3363191559910765 16.411014638841152 4.713719040155409 6.4083554893732071 10.037820279598234 3.0707684308290464 4.205443948507309 3.9302557110786429 3.7849160879850379 3.3639317750930848 3.6189629882574081 2.9043253660202017 3.8438452929258338 3.5444311499595633 6.6321025788784018 29.378138870000839 2.9994201511144629 25.525812014937401 3.5823911726474762
leaf_count=1100 2245 42 517 381 596 575 176 24 57 78 28 64 115 32 43 72 22 30 28 27 24 26 20 31 25 46 225 19 186 24
internal_value=0 0.0390103 0.0886151 -0.00959707 0.137855 -0.0567847 -0.0557611 0.15856 0.131282 0.167437 0.180588 -0.0205695 0.138408 0.161183 0.209114 0.113653 0.159157 0.120578 0.0940824 0.0705462 0.104938 0.147665 0.124994 0.0918612 0.074331 0.0864004 0.0702519 0.112157 0.126273 0.197459
internal_weight=0 593.751 391.186 130.632 260.555 202.565 64.598 179.671 44.1141 135.557 93.2925 76.8735 42.2642 25.8532 11.1221 35.3742 10.6383 7.56753 24.7359 17.1867 13.4018 7.54922 14.7311 80.8839 43.3985 39.5547 32.9226 37.4854 32.1076 6.58181
internal_count=6878 4633 2894 1074 1820 1739 557 1222 310 912 624 639 288 173 75 253 76 54 177 123 96 54 98 598 327 296 250 271 229 43
cat_boundaries=0 1 2
cat_threshold=1 1
is_linear=0
shrinkage=0.1


Tree=14
num_leaves=31
num_cat=5
split_feature=5 5 5 5 5 0 1 5 1 1 5 1 1 2 1 0 3 1 1 1 1 5 1 0 1 2 1 3 2 1
split_gain=299.827 344.222 39.4311 59.7105 10.0045 7.4426 6.94529 5.93285 5.923 5.58452 5.43543 4.62601 5.49756 5.63702 8.21728 6.72755 15.4107 4.38103 4.56117 4.18759 4.58816 3.73966 3.9533 6.45794 5.40936 3.93588 4.58931 3.91233 3.61197 3.494
threshold=0.50211372458320791 -0.76354848707507894 0.34390594812592196 -0.60534071061779315 1.0000000180025095e-35 1.0000000180025095e-35 -1.6350550646246893 -1.0008601517610078 -1.5883098683551478 1.2468571114474882 -0.28892515770322147 -0.85384367848371812 -1.0755292304892701 0 -1.2596769733692816 -1.0000000180025095e-35 1 0.78223819095022884 0.40473531804620555 0.13701283032065056 0.87502032293977305 -0.28892515770322147 -0.11087836201782629 -1.531447159112646 -0.28581871775383705 2 0.27299885583204359 3 4 1.5510550174742763
decision_type=2 2 2 2 2 2 2 2 2 2 2 2 2 9 2 2 9 2 2 2 2 2 2 2 2 9 2 9 9 2
left_child=1 7 3 28 6 19 10 -1 -8 17 -5 12 13 14 -10 -15 -17 18 -4 -6 -21 22 24 -24 -13 27 -27 -25 -3 -7
right_child=-2 2 9 4 5 29 8 -9 11 -11 -12 21 -14 15 -16 16 -18 -19 -20 20 -22 -23 23 25 -26 26 -28 -29 -30 -31
leaf_value=-0.090899248129240579 -0.092079049450427969 -0.019607356107397722 0.031849636176933746 -0.045338502056789333 0.21042209595957717 0.088659046346154388 0.30841413235759635 -0.052118283099604347 0.039665352040537005 -0.07976393945600041 0.14018875775464165 0.13466831588793518 0.048160162753838942 0.093244774030532454 0.1974632344469428 0.12023334425244953 0.40460080680529154 0.089523519108753558 -0.046047633066411658 0.042972164429433496 0.18370636357467457 0.16823711638782676 -0.01310948278272818 0.24037305950165561 0.26733975296895762 0.042307573281331952 0.13265126589187992 0.1163756013410145 0.035899338077599645 -0.014553804601991654
leaf_weight=113.80558966845274 245.84885287284851 14.777233801782131 44.958277128636837 3.4948902875185013 7.9406075626611736 61.083306320011616 2.1840239167213431 60.37616853415966 9.8258165866136533 4.9646444022655478 2.8807864934206 8.3908634781837446 9.9855549186468107 5.0439324602484703 4.9689609408378628 4.4698913991451246 3.3221355825662613 10.464283190667627 9.0258440822362882 4.7588750869035703 4.5137437433004379 66.31683461368084 3.310103476047515 5.802902415394783 4.84928174316883 6.8528234958648673 31.326074361801147 4.5316462516784668 56.728510670363903 3.465968780219554
leaf_count=1048 2244 126 365 27 56 466 16 538 75 45 22 61 79 35 35 33 21 85 74 34 32 460 24 41 35 50 229 32 461 29
internal_value=0 0.0398878 0.0909555 0.105333 0.127642 0.0986972 0.140971 -0.0774567 0.144788 0.0224322 0.0384902 0.142673 0.111753 0.134735 0.0926632 0.183227 0.241474 0.0303046 0.0188256 0.157122 0.111479 0.151526 0.134493 0.122034 0.18326 0.131254 0.116435 0.186001 0.0244284 0.083117
internal_weight=0 574.42 400.238 330.825 259.319 81.7625 177.557 174.182 171.181 69.413 6.37568 168.997 37.6163 27.6307 14.7948 12.836 7.79203 64.4484 53.9841 17.2132 9.27262 131.381 65.0637 51.8236 13.2401 48.5134 38.1789 10.3345 71.5057 64.5493
internal_count=6878 4634 3048 2479 1892 617 1275 1586 1226 569 49 1210 278 199 110 89 54 524 439 122 66 932 472 376 96 352 279 73 587 495
cat_boundaries=0 1 2 3 4 5
cat_threshold=1 1 2 1 2
is_linear=0
shrinkage=0.1


Tree=15
num_leaves=31
num_cat=7
split_feature=5 5 5 5 5 5 1 1 5 2 1 1 1 1 3 3 1 3 1 0 1 1 4 1 1 1 2 2 1 1
split_gain=580.162 234.237 31.8147 23.3919 16.3792 14.3585 5.27058 3.8526 3.75736 3.73244 11.1828 3.28758 6.67434 4.18915 6.42321 3.8332 4.55001 3.82034 3.277 3.15561 2.97843 2.81603 5.81633 5.58865 4.9838 4.63241 4.29227 2.96784 3.3133 5.04493
threshold=-0.13071738124593565 -1.0008601517610078 -1.3172757046755794 0.34390594812592196 -0.28892515770322147 -0.76354848707507894 0.74080494880222625 1.0258798199914747 -1.5545873693615084 0 -0.59532857790216376 -0.77735153913355959 -0.21145136005229401 -1.2207226431446638 1 2 0.51876526652190491 3 1.4515444102641164 1.0000000180025095e-35 1.3594705388241108 -0.72777330066586421 4 -0.51033731195754306 0.44616856019420809 0.020858100196335671 5 6 0.78223819095022884 1.0421698126308605
decision_type=2 2 2 2 2 2 2 2 2 9 2 2 2 2 9 9 2 9 2 2 2 2 9 2 2 2 9 9 2 2
left_child=1 2 8 -2 5 21 -4 -8 -1 10 -6 13 -13 14 -11 -14 -17 -15 -9 -7 -10 -3 23 -23 -24 26 -25 -27 -29 -30
right_child=3 4 6 -5 9 19 7 18 20 11 -12 12 15 17 -16 16 -18 -19 -20 -21 -22 22 24 25 -26 27 -28 28 29 -31
leaf_value=-0.095160705956149588 -0.037918275929129205 0.064765328789086141 0.00015145371642473937 -0.09728313689232515 -0.08472753069607912 0.16180162245337115 0.14338766752918009 -0.0048727680801820446 -0.062254981462556973 0.14869794236080705 0.093298468173271074 -0.0065542713167386843 0.066757197060880416 0.10968351461574018 0.0058543868615664272 0.18979233519153912 0.083085764968667736 0.2507854320013988 0.10589153719735692 0.13510072721307106 0.034714831390808304 0.19661978196213992 0.25625710729487 0.077724426954311268 0.12117970236176151 0.033915464895439833 -0.075802848006021162 0.069659204576356437 0.25715173781267137 0.10962748468118994
leaf_weight=51.391678832471371 82.66581629961729 23.07028104364872 35.997773796319962 336.82196892797947 5.1685660332441357 71.529732570052147 4.8537403494119671 7.0727218836545926 23.099041208624843 7.4950203746557245 11.119365110993384 8.1807710230350477 23.391780376434326 3.746198743581771 5.4276145547628412 7.1337165832519558 9.0852641463279706 3.9337035864591599 4.2918285429477692 116.11060926318169 3.6708547174930564 4.3152024000883094 4.1571534723043424 3.843400612473487 7.9646136611700058 6.5116190612316132 3.4607455134391785 10.920147806406026 3.0392144918441764 9.7694839686155301
leaf_count=433 655 163 276 2813 37 459 35 51 192 52 78 58 166 27 38 50 65 27 31 767 30 30 29 27 55 46 24 77 21 66
internal_value=0 0.0754224 -0.038961 -0.0855845 0.118107 0.130354 0.0214766 0.0688094 -0.0793365 0.079827 0.0368064 0.0900723 0.0756772 0.123464 0.0887025 0.0926604 0.130019 0.181957 0.0369574 0.145279 -0.0489579 0.0940085 0.106506 0.0888423 0.167504 0.0764549 0.00498234 0.093718 0.110129 0.144632
internal_weight=0 479.752 130.378 419.488 349.374 264.692 52.2161 16.2183 78.1616 84.682 16.2879 68.3941 47.7915 20.6025 12.9226 39.6108 16.219 7.6799 11.3646 187.64 26.7699 77.0519 53.9816 41.8598 12.1218 37.5446 7.30415 30.2405 23.7288 12.8087
internal_count=6878 3410 1048 3468 2362 1764 393 117 655 598 115 483 339 144 90 281 115 54 82 1226 222 538 375 291 84 261 51 210 164 87
cat_boundaries=0 1 2 3 4 5 6 7
cat_threshold=2 1 1 1 1 1 2
is_linear=0
shrinkage=0.1


Tree=16
num_leaves=31
num_cat=4
split_feature=5 5 5 5 5 5 3 5 1 1 1 0 3 0 2 5 1 1 1 1 3 0 5 1 1 1 0 1 1 1
split_gain=852.083 55.2319 80.9345 14.9288 13.824 13.4749 12.0037 9.25386 5.45791 11.487 7.27237 6.17653 5.45442 5.08539 6.69284 5.07836 4.56898 4.55644 4.24614 6.19893 3.67073 3.96409 4.86977 4.45114 16.5055 5.43706 6.94586 4.10107 4.22 3.91796
threshold=-0.28892515770322147 -1.5545873693615084 -0.60534071061779315 -2.1083145869620084 -0.13071738124593565 -0.76354848707507894 0 -1.87100292227608 0.73124343138345649 0.95576202558716272 0.035731571736644284 1.0000000180025095e-35 1 1.0000000180025095e-35 2 -1.0008601517610078 -0.22703309214214112 1.5510550174742763 0.6462521654388359 0.16675977340126777 3 -1.531447159112646 -1.3172757046755794 -1.3719362704711346 -1.5104012079059124 0.70149648830283928 -1.0000000180025095e-35 -0.62649204208185794 0.25458408154404244 -1.0015160030624963
decision_type=2 2 2 2 2 2 9 2 2 2 2 2 9 2 9 2 2 2 2 2 9 2 2 2 2 2 2 2 2 2
left_child=1 3 5 -1 -2 15 7 -5 10 -10 11 16 18 14 -8 20 -7 -11 19 -4 21 22 -3 24 -23 26 -25 -28 -29 -22
right_child=4 2 12 6 -6 8 13 -9 9 17 -12 -13 -14 -15 -16 -17 -18 -19 -20 -21 29 23 -24 25 -26 -27 27 28 -30 -31
leaf_value=-0.077402485786730479 -0.050968810862791682 0.041613117012691492 -0.030084302956819766 0.022748893584263366 -0.099170000153044321 0.047676967850593513 -0.075600006432747557 0.22130576503556332 0.24303809501147119 0.080129404460276041 0.035635381679201682 0.15173178642731699 0.050521618723016352 -0.047603301053823321 0.069750229240866185 0.18620163897227393 0.18193283420380954 0.20298363947313819 -0.08380896426432459 0.13456528765133952 0.067597157661554719 0.24979895858707071 0.19051532698345919 0.29285873337476381 -0.070024941957861131 0.14572186160449013 0.24082227057888753 0.033191882949601702 0.20356197040242974 0.14511732074583711
leaf_weight=13.29803556203842 70.198964335024357 4.7808595299720764 7.0193549841642398 3.9300630763173103 390.40985254198313 13.306159898638727 3.9296318739652634 5.8279267027974129 9.6913368105888384 13.630073741078379 13.021572947502134 25.721101686358452 65.370517492294312 9.339915409684183 16.344096906483177 82.054956763982773 3.1313893795013419 3.8777456581592551 5.7012199610471717 3.3914145454764366 8.136197626590727 3.6633221507072449 4.0629114210605604 9.5561245083808846 2.8840026855468741 11.978917896747587 5.2083293795585588 2.8984339088201621 2.917103499174118 32.816189244389534
leaf_count=120 598 33 58 28 3468 102 33 41 60 101 100 178 506 78 133 538 21 25 47 28 57 25 28 66 20 83 36 20 20 227
internal_value=0 0.109395 0.124369 0.014205 -0.0918239 0.152252 0.045146 0.141336 0.119028 0.155691 0.100957 0.121133 0.0376769 0.0134503 0.0415772 0.168262 0.073253 0.10734 -0.0144376 0.023552 0.151703 0.170482 0.11002 0.184155 0.108921 0.199284 0.230461 0.176372 0.11865 0.129716
internal_weight=0 387.489 334.819 52.6697 460.609 253.337 39.3716 9.75799 82.3794 27.1992 55.1802 42.1587 81.4825 29.6136 20.2737 170.957 16.4375 17.5078 16.112 10.4108 88.9024 47.95 8.84377 39.1062 6.54732 32.5589 20.58 11.0239 5.81554 40.9524
internal_count=6878 2812 2379 433 4066 1740 313 69 587 186 401 301 639 244 166 1153 123 126 133 86 615 331 61 270 45 225 142 76 40 284
cat_boundaries=0 1 2 3 4
cat_threshold=2 2 2 1
is_linear=0
shrinkage=0.1


Tree=17
num_leaves=31
num_cat=5
split_feature=5 5 5 5 5 5 3 5 1 1 2 1 1 1 0 1 1 1 3 1 0 3 1 0 1 1 2 1 0 0
split_gain=1603.46 133.845 69.0142 26.7692 10.9999 4.21334 8.56583 4.13915 3.97289 9.86117 3.94795 6.42592 13.7527 6.60823 4.67329 4.66396 3.89026 5.50021 5.20282 3.72644 3.66443 4.38476 3.52069 3.43679 3.20564 3.01455 2.76657 2.5457 2.4289 3.43812
threshold=-1.0008601517610078 -0.76354848707507894 -1.5545873693615084 -0.60534071061779315 -1.3172757046755794 -1.87100292227608 0 -0.28892515770322147 -1.3850390906375971 -1.4721551382308331 1 0.29991275671450673 -0.80143239781786879 -0.079714897838132057 1.0000000180025095e-35 0.8757285834893116 0.49255962618898019 -1.3602499714037493 2 1.4657096212548864 1.0000000180025095e-35 3 1.0931645721976329 1.0000000180025095e-35 1.5174126413711975 -1.5429811931846837 4 -1.5104012079059124 1.0000000180025095e-35 0.66641341075057137
decision_type=2 2 2 2 2 2 9 2 2 2 9 2 2 2 2 2 2 2 9 2 2 9 2 2 2 2 9 2 2 2
left_child=2 10 5 27 24 -1 -7 -5 9 -6 16 12 -12 14 -14 -13 17 25 -19 -17 21 -18 -22 26 -4 -2 -8 -3 -10 -30
right_child=1 3 4 7 8 6 23 -9 28 -11 11 15 13 -15 -16 19 20 18 -20 -21 22 -23 -24 -25 -26 -27 -28 -29 29 -31
leaf_value=0.35254076207205226 0.076522562304479125 -0.10085144175412042 0.259458291025842 -0.073880455194142228 0.15893622942103022 0.20713022003268922 0.38034997003445642 -0.099691205237547112 0.14790505837340037 0.37960154407921676 -0.015042326221048674 -0.10169416934093929 0.31777773819869237 0.03369925970824774 0.14281670414956249 0.069788056261455053 0.098754539244149273 -0.10227196573419128 0.050079385497377255 -0.067690319937281959 0.12477589522826016 0.24577518329802245 -0.024564377292206618 0.37849674571257108 0.15293230404500194 0.22223494832307839 0.28750842712664654 -0.024641089128032069 0.20616004846711028 0.092529837397954673
leaf_weight=46.008487641811371 3.3400381207466125 4.7037232220172873 33.430482715368271 72.112652249634266 5.2935540527105331 6.9470737427473068 4.0294316411018372 448.88186686486006 25.278781339526176 3.2799980789422971 9.1915121525526065 4.5618313550949088 2.6161926835775375 2.9242571443319338 3.6657880693674088 5.7875911071896535 4.4524385631084433 2.6775239184498787 13.76597005128861 2.9903334155678749 3.9814160615205756 3.726293832063674 2.6157302483916283 9.9240340292453784 3.0856403708457938 2.4696123450994483 15.776082187891008 64.29719028621912 21.485736414790157 3.0394577383995047
leaf_count=236 25 40 202 639 36 41 20 4066 172 20 73 37 20 22 28 44 33 21 107 25 33 28 22 50 20 20 86 547 144 21
internal_value=0 -0.0729781 0.265601 -0.0883668 0.207408 0.332386 0.307103 -0.0961187 0.180481 0.243357 0.059052 0.033171 0.0714863 0.157877 0.215681 -0.0196723 0.0812346 0.0548227 0.0252717 0.022954 0.121012 0.165738 0.0655633 0.330465 0.250457 0.138463 0.306397 -0.0298363 0.169657 0.192078
internal_weight=0 658.762 177.579 589.995 94.8937 82.6851 36.6766 520.995 58.3775 8.57355 68.7665 31.7375 18.3978 9.20624 6.28198 13.3398 37.029 22.2531 16.4435 8.77792 14.7759 8.17873 6.59715 29.7295 36.5161 5.80965 19.8055 69.0009 49.804 24.5252
internal_count=6878 5830 1048 5292 615 433 197 4705 393 56 538 249 143 70 48 106 289 173 128 69 116 61 55 156 222 45 106 587 337 165
cat_boundaries=0 1 2 3 4 5
cat_threshold=2 1 2 1 2
is_linear=0
shrinkage=0.1


Tree=18
num_leaves=1
num_cat=0
split_feature=
split_gain=
threshold=
decision_type=
left_child=
right_child=
leaf_value=0
leaf_weight=
leaf_count=
internal_value=
internal_weight=
internal_count=
is_linear=0
shrinkage=1


Tree=19
num_leaves=31
num_cat=4
split_feature=5 5 0 5 0 0 2 5 5 3 1 1 1 1 1 1 1 1 1 2 1 1 3 1 1 1 1 1 1 1
split_gain=778.925 41.986 19.7841 13.0726 10.3839 9.08271 7.71716 4.61557 4.27954 3.79945 3.9566 4.46625 5.07283 6.07862 3.6197 3.60474 4.75967 3.65999 3.22569 3.11352 3.10521 4.78161 4.55087 7.48513 6.09504 3.84053 8.53727 2.90044 3.19973 2.77626
threshold=0.50211372458320791 0.97673705395506549 1.0000000180025095e-35 0.34390594812592196 0.66641341075057137 0.66641341075057137 0 0.66032150104049381 1.7677759362414951 1 0.55984437839513823 -0.6452609466446283 -0.11937748861228835 0.23971061000373381 0.61154739851144913 0.52230656926959751 -0.45650951019261682 -1.3283782466745164 -1.5252746794462209 2 1.2351708123801031 0.73124343138345649 3 -1.1654783202806602 0.51876526652190491 -0.14062530509844348 0.20925540637357806 1.1080380437379416 1.4345461570751923 0.75355363869391934
decision_type=2 2 2 2 2 2 9 2 2 9 2 2 2 2 2 2 2 2 2 9 2 2 9 2 2 2 2 2 2 2
left_child=3 2 -2 -1 7 8 14 15 20 -8 11 18 -13 -14 -6 16 17 -4 -11 -10 21 22 25 -24 -25 -3 -27 29 -29 -17
right_child=1 5 4 -5 6 -7 9 -9 19 10 -12 12 13 -15 -16 27 -18 -19 -20 -21 -22 -23 23 24 -26 26 -28 28 -30 -31
leaf_value=-0.093807128923353508 -0.053954295085473704 0.010948690238097282 -0.058118339425758163 -0.043303305923581864 0.070504202987556719 0.16716864633097267 0.080644626063179153 0.083301587951157122 0.24354712767330788 0.093920238215924781 0.1946309518768837 -0.021588572986056064 0.19529770148899614 0.017312386549807934 -0.064328788401544879 0.058438726232162341 -0.047036403055838324 0.083084248011832285 0.18679328237378204 0.12850497807682201 0.17772612956135225 0.056553487331273515 0.21875776677792458 0.10125234297022163 0.21741440121392827 0.23923625867330875 0.010841252165128788 -0.064459891286471477 0.092016493472269256 0.17342229911011714
leaf_weight=384.26754768937826 11.053965151309965 6.040695808827877 2.3736247122287706 59.140114553272724 8.5869888514280301 98.546745389699936 11.71150928735733 36.866473935544491 4.7970040738582593 5.4594204723835018 11.605105161666868 3.5818357467651367 4.6490038931369799 3.2674303352832794 2.5920497179031381 4.9783058166503888 9.364488437771799 8.0995764285326022 11.872564755380152 4.6166410595178604 7.3848871141672126 13.763864830136297 8.8981800824403745 33.314352616667747 5.2254857122898093 3.17448890209198 3.3783017992973328 2.6565450429916373 2.5721000507473946 3.6317011043429375
leaf_count=4065 106 42 21 569 62 575 75 270 27 34 74 25 32 23 20 39 82 64 73 27 48 104 56 222 32 20 21 21 20 29
internal_value=0 0.115126 0.0746248 -0.0870711 0.085242 0.146158 0.114637 0.0588542 0.123302 0.1308 0.145327 0.125481 0.0771577 0.121836 0.0392409 0.0320909 0.00476488 0.0510824 0.157539 0.187128 0.115901 0.109714 0.121903 0.136089 0.117002 0.0684652 0.121487 0.0712626 0.0125147 0.106939
internal_weight=0 334.063 144.923 443.408 133.869 189.141 63.3259 70.5428 90.5939 52.1469 40.4354 28.8303 11.4983 7.91643 11.179 33.6763 19.8377 10.4732 17.332 9.41365 81.1803 73.7954 60.0315 47.438 38.5398 12.5935 6.55279 13.8387 5.22865 8.61001
internal_count=6878 2244 1070 4634 964 1174 418 546 599 336 261 187 80 55 82 276 167 85 107 54 545 497 393 310 254 83 41 109 41 68
cat_boundaries=0 1 2 3 4
cat_threshold=2 2 1 2
is_linear=0
shrinkage=0.1


Tree=20
num_leaves=31
num_cat=4
split_feature=5 5 5 5 4 1 5 1 0 0 1 1 3 1 1 3 1 1 1 1 1 1 1 1 0 1 1 3 1 1
split_gain=880.52 59.1883 15.1903 12.913 3.44998 3.60652 3.20837 4.07055 2.91794 3.31176 5.81684 3.14191 3.29033 4.01392 2.94837 2.77033 2.57838 7.70153 2.90508 4.66018 3.54076 4.31526 6.28329 6.21455 5.68389 2.08803 5.01946 2.51925 2.06887 6.83964
threshold=0.50211372458320791 0.97673705395506549 -0.13071738124593565 0.66032150104049381 0 -1.5252746794462209 0.34390594812592196 0.96426115218162478 1.7653436956821802 0.66641341075057137 0.012358973601873607 -0.55424946602893044 1 -1.1311276836280428 0.45502181706343942 2 1.319099687500416 1.4738546175745795 1.1526584583588673 0.96426115218162478 0.61154739851144913 0.043522437781567842 -0.11087836201782629 0.40473531804620555 0.66641341075057137 -0.9664571058603405 -0.72777330066586421 3 0.81056861293176907 0.89697639997546674
decision_type=2 2 2 2 9 2 2 2 2 2 2 2 9 2 2 9 2 2 2 2 2 2 2 2 2 2 2 9 2 2
left_child=2 3 -1 16 -3 -6 -4 15 9 10 11 12 13 -5 -12 -8 18 -18 19 20 21 22 25 24 -23 -2 -27 -28 -7 -30
right_child=1 4 6 8 5 28 7 -9 -10 -11 14 -13 -14 -15 -16 -17 17 -19 -20 -21 -22 23 -24 -25 -26 26 27 -29 29 -31
leaf_value=-0.098118717049539395 0.018743215062626096 0.21705374021320678 -0.073298385991416054 0.214671351257678 0.09851436171536021 0.14574056505116517 -0.051468113762570503 -0.10020798432905823 0.17417673751930532 0.064639059669109142 -0.0065121267631282663 0.18907265738211604 0.062368795813404258 0.095951035555691386 0.087362571468134989 -0.005729046617102526 0.22556197279307613 -0.0055303718680289578 -0.066901644341642794 0.13549055755390435 -0.02648986382510754 0.077983425361640935 -0.070044374755160344 0.013759702463744031 0.25539395494681361 0.15577688736959139 0.065264804803203499 -0.042331654483034872 0.26191185098506736 0.1547457315401857
leaf_weight=357.94140845537186 17.95742388069629 7.6036372631788254 74.133174873888493 5.1478691995143908 13.507207483053206 140.99724173545837 30.746299967169762 10.357105255126951 4.6298984289169303 27.669538497924805 4.0330528020858791 8.6163695901632327 7.0787087380886105 6.3740760684013331 19.630399644374847 23.259875446557999 2.7345829606056204 3.0512961000204086 2.7304438054561606 4.5943939089775077 9.0974268019199354 4.4033635854721052 5.9855952560901704 5.9532876312732697 3.0613810122013092 4.6185142099857321 6.5055781602859488 3.2698258161544791 6.889525666832923 43.928927674889565
leaf_count=3410 130 42 655 26 82 782 272 92 30 189 27 47 45 39 130 205 20 22 20 33 67 32 44 43 22 33 47 24 35 233
internal_value=0 0.116552 -0.0872378 0.069999 0.150908 0.148459 -0.0591164 -0.0427818 0.0970302 0.092483 0.107625 0.139152 0.116028 0.148994 0.0713631 -0.0317688 0.0395993 0.103691 0.0341602 0.0383765 0.0310443 0.0411576 0.0240747 0.0899657 0.150742 0.0414884 0.0698646 0.0292743 0.151975 0.169274
internal_weight=0 370.07 496.438 157.143 212.927 205.323 138.496 64.3633 83.1799 78.55 50.8805 27.217 18.6007 11.5219 23.6635 54.0062 73.9631 5.78588 68.1772 65.4468 60.8524 51.755 38.3369 13.418 7.46474 32.3513 14.3939 9.7754 191.816 50.8185
internal_count=6878 2244 4634 1070 1174 1132 1224 569 533 503 314 157 110 65 157 477 537 42 495 475 442 375 278 97 54 234 104 71 1050 268
cat_boundaries=0 1 2 3 4
cat_threshold=4 1 1 1
is_linear=0
shrinkage=0.1


Tree=21
num_leaves=31
num_cat=5
split_feature=5 5 5 5 0 5 0 2 1 1 1 3 2 1 5 1 1 1 1 1 1 0 1 1 5 3 2 1 1 1
split_gain=477.558 109.589 36.5208 20.3198 7.40009 7.31207 5.76616 5.09706 5.22719 13.1983 4.74981 4.13333 3.91566 3.75835 3.69159 3.50754 3.44576 3.73976 4.79691 3.44559 3.01401 2.7307 4.26246 6.46622 4.11518 12.6209 4.93755 2.60736 3.07011 2.12285
threshold=1.0000000180025095e-35 0.97673705395506549 0.34390594812592196 1.6095681597842091 0.66641341075057137 -0.28892515770322147 1.7653436956821802 0 -1.6694057012773069 -1.5514803197791458 -0.89421452980741301 1 2 -0.76106154649417401 0.66032150104049381 -1.4084116887723674 0.44616856019420809 1.1193702125305574 1.5882386963250481 -1.5706033546166853 1.1370767262690202 0.66641341075057137 1.3003307829376456 0.52301482981913594 1.2140487186409945 3 4 0.37038468139358804 0.035731571736644284 0.79002905699515247
decision_type=2 2 2 2 2 2 2 9 2 2 2 9 9 2 2 2 2 2 2 2 2 2 2 2 2 9 9 2 2 2
left_child=5 2 4 7 15 -1 12 11 -9 -10 -11 -3 -4 -12 -14 19 -17 -18 -19 -2 -6 24 23 27 25 -15 -26 28 -23 -25
right_child=1 3 6 -5 20 -7 -8 8 9 10 13 -13 14 21 -16 16 17 18 -20 -21 -22 22 -24 29 26 -27 -28 -29 -30 -31
leaf_value=-0.095167673314864476 0.0075927914858205884 0.050582228623462344 0.1397649032507122 -0.078007272579367001 0.071618137990819342 -0.058774714722325094 0.02842937126295237 -0.10136526132034923 0.25216599874893614 -0.027528546836242354 0.14588062389183806 -0.057143354681039239 0.11922672716878353 0.16634775089564846 0.089676605896059233 -0.01271409303101779 0.066698484252609241 -0.057137656841794907 0.094038207772578722 0.15797122882671738 0.17260789175557609 -0.032692478780136675 -0.080543490720307767 0.14196004796429959 -0.01719691184962319 -0.010608344058052704 0.13652432066488071 -0.10156617060827661 0.084577268377491355 0.044165919384732542
leaf_weight=282.96143668889999 2.7421423196792603 4.5929931402206421 56.696385487914085 33.366170533001423 16.377563521265987 68.591278344392776 7.6378941535949698 3.2582809180021277 2.5395832881331435 16.266042210161686 2.8277939781546584 15.863331064581873 134.30614782869816 8.5544672235846502 61.696503877639771 28.174406744539738 16.51219512522221 6.881829768419264 3.0200092643499374 3.4290001094341269 3.605880767107009 7.2788436785340362 4.8176293149590483 4.1102268248796445 11.976819574832918 7.6213155239820507 2.5310843512415877 3.0645457208156577 3.2200583219528198 4.8258871957659721
leaf_count=2812 22 37 344 324 110 636 59 27 20 135 23 132 834 66 402 231 125 59 21 24 25 60 40 34 103 59 22 25 26 41
internal_value=0 0.0654884 0.0958094 -0.0101571 0.0370527 -0.0880671 0.114033 0.0117484 0.0227806 0.0278601 0.0204712 -0.0329561 0.11662 0.0333067 0.109925 0.019691 0.0116125 0.0375605 -0.0110298 0.0911507 0.0898411 0.0278182 0.00482206 0.0231006 0.0482914 0.0829738 0.00962167 -0.0204132 0.00327466 0.089147
internal_weight=0 477.795 341.08 136.715 80.743 351.553 260.337 103.349 82.8926 79.6343 77.0947 20.4563 252.699 60.8287 196.003 60.7596 54.5884 26.414 9.90184 6.17114 19.9834 58.0009 27.3172 22.4996 30.6837 16.1758 14.5079 13.5634 10.4989 8.93611
internal_count=6878 3430 2256 1174 617 3448 1639 850 681 654 634 169 1580 499 1236 482 436 205 80 46 135 476 226 186 250 125 125 111 86 75
cat_boundaries=0 1 2 3 4 5
cat_threshold=2 2 2 1 1
is_linear=0
shrinkage=0.1


Tree=22
num_leaves=31
num_cat=3
split_feature=4 5 5 5 5 5 5 0 5 1 1 0 1 0 1 1 1 1 1 1 1 1 5 1 1 0 1 2 3 0
split_gain=251.764 213.857 125.002 22.4927 15.347 13.7527 5.47019 3.30235 2.85036 3.48685 10.5915 3.17924 2.77158 2.76108 3.86431 3.85936 4.13222 3.55095 3.98309 3.14233 2.96325 2.89081 2.54751 2.35216 3.59286 2.81184 3.29416 3.56146 2.8266 2.24776
threshold=0 -0.28892515770322147 0.50211372458320791 0.66032150104049381 -0.60534071061779315 -0.13071738124593565 0.97673705395506549 0.66641341075057137 0.34390594812592196 -1.5514803197791458 -1.4084116887723674 1.0000000180025095e-35 -0.94662581047326233 0.66641341075057137 0.043522437781567842 0.2899971090209677 1.1370767262690202 -0.22703309214214112 -0.6452609466446283 -0.36089433600491855 -0.89421452980741301 -1.1463552854431207 -0.76354848707507894 0.20500584307634706 0.29991275671450673 1.0000000180025095e-35 1.1193702125305574 1 2 1.0000000180025095e-35
decision_type=9 2 2 2 2 2 2 2 2 2 2 2 2 2 2 2 2 2 2 2 2 2 2 2 2 2 2 9 9 2
left_child=1 4 5 29 22 -3 12 -6 9 -7 -11 -10 -5 14 17 19 -17 18 21 20 -15 -12 -1 -16 -25 -26 28 -28 -27 -4
right_child=-2 2 3 6 7 8 -8 -9 11 10 13 -13 -14 15 23 16 -18 -19 -20 -21 -22 -23 -24 24 25 26 27 -29 -30 -31
leaf_value=-0.091947429123375765 -0.088872052401600482 0.077161029738198009 0.080915659845176027 0.0051270059973983605 -0.011581483445332812 0.20784673896181186 -0.098760934843712858 -0.084673920991158308 0.15680628187939846 -0.031196486087342601 0.12008598208459792 0.10427129128279976 -0.049806487659985049 0.036511038933116413 0.060700139308670867 0.22085252866974525 0.08641321273053354 0.23826672951355254 0.096330022986678851 -0.0051520666419899372 0.16185118736965667 0.20898340551341521 -0.062318921803465356 0.232329726771275 0.079586023062833217 0.1727553905810244 0.23365139437725851 0.11715091674826095 0.089441232946057436 0.024925660168801423
leaf_weight=54.572009183466434 229.45178927481174 86.628733336925507 8.1513726860284788 13.290605068206785 68.220239803195 6.3065234422683707 17.791097775101662 6.7971493750810614 13.468285754323004 3.8634913414716712 5.2173804342746797 79.6027010679245 29.727872923016548 3.479190468788147 4.6889527291059485 4.5726142376661283 4.5725404471158981 6.6060266941785803 7.7664806693792334 3.9876964092254656 4.1195798516273499 12.238763839006426 61.978416800498962 3.50387418270111 9.5880448967218381 6.0207415819168091 6.3831272125244123 4.4557921141386032 12.582368761301046 59.565349780023098
leaf_count=518 2245 598 61 118 575 37 176 64 77 23 30 490 263 22 27 29 26 38 45 27 28 71 582 20 59 35 36 28 74 456
internal_value=0 0.0340158 0.0740994 -0.00797725 -0.053484 0.110519 -0.0521228 -0.0182042 0.124752 0.135654 0.131261 0.111874 -0.0328347 0.137551 0.14607 0.105069 0.153633 0.173001 0.155907 0.0667367 0.104463 0.182413 -0.0761918 0.127918 0.135328 0.12662 0.141937 0.185759 0.116405 0.0316654
internal_weight=0 609.747 418.179 128.526 191.568 289.653 60.8096 75.0174 203.024 109.953 103.647 93.071 43.0185 99.7832 79.0516 20.7316 9.14515 31.8287 25.2226 11.5865 7.59877 17.4561 116.55 47.2229 42.5339 39.0301 29.442 10.8389 18.6031 67.7167
internal_count=6878 4633 2894 1074 1739 1820 557 639 1222 655 618 567 381 595 463 132 55 184 146 77 50 101 1100 279 252 232 173 64 109 517
cat_boundaries=0 1 2 3
cat_threshold=1 1 2
is_linear=0
shrinkage=0.1


Tree=23
num_leaves=31
num_cat=5
split_feature=5 5 5 5 5 5 0 1 1 5 3 1 1 3 1 0 1 1 3 1 1 1 1 2 1 1 2 1 1 1
split_gain=255.06 264.046 26.0023 38.3661 5.9819 5.96308 4.67153 4.60632 4.59011 3.91386 3.30169 6.7839 4.74713 2.99348 2.96601 3.1406 9.37315 4.90179 4.38641 3.86631 4.06334 12.2749 3.81046 3.63627 3.62077 3.27612 2.9173 2.90842 4.5096 2.87496
threshold=0.50211372458320791 -0.76354848707507894 0.34390594812592196 -0.60534071061779315 -1.3172757046755794 1.0000000180025095e-35 1.0000000180025095e-35 1.2468571114474882 -1.6350550646246893 -0.28892515770322147 0 -1.4346173291052924 0.79640340194099901 1 -1.5883098683551478 1.0000000180025095e-35 -1.2037243899557397 -1.067030103894808 2 -0.61020204944247236 0.87502032293977305 1.0931645721976329 0.57684263158406235 3 1.3530961938782642 -1.4516155822942165 4 0.20500584307634706 0.85093946425546385 0.39269488870405095
decision_type=2 2 2 2 2 2 2 2 2 2 9 2 2 9 2 2 2 2 9 2 2 2 2 9 2 2 9 2 2 2
left_child=1 4 3 26 -1 8 13 10 9 -5 12 -12 29 -7 -10 16 25 -18 23 -20 22 -22 -21 -19 -23 -16 -3 -15 -29 -4
right_child=-2 2 7 5 -6 6 -8 -9 14 -11 11 -13 -14 27 15 -17 17 18 19 20 21 24 -24 -25 -26 -27 -28 28 -30 -31
leaf_value=-0.098268930147535488 -0.090165823294318381 -0.018058875521924856 0.043274980209099034 -0.043466593621613182 -0.058778568959467904 0.18871342968343274 0.069578400780716879 -0.076834311602608979 0.21917557473670635 0.10988498963238875 0.14935349704053882 -0.015100016744407261 0.12327716986476539 0.14877481659974134 0.061958606595207702 0.12298889907589089 0.22797770664567385 0.10580343334804482 -0.029772656637438569 0.10138440537903642 -0.084161715705345183 0.20421165406209629 0.21190504691133213 0.22156996698725395 0.068912793278281273 -0.078358130950797189 0.032015460342291926 -0.037302816631055356 0.12220202642729859 -0.039979795613689167
leaf_weight=63.575367584824562 224.47197910398245 14.542702563107014 26.162394255399708 3.4098396003246307 96.704744182527065 5.3599449843168259 69.058737680315971 4.5571940615773192 2.7372193038463584 3.2510988116264334 2.7840715795755413 25.330779455602169 6.6303763836622229 6.6452605575323123 2.9998678416013718 129.96489146351814 3.2727491110563269 6.1263787150382996 2.7109690457582465 18.218712747097019 4.474659636616706 3.2204096764326078 3.7640436440706244 4.8701393902301788 5.1266928017139435 3.7364836484193793 58.181506313383579 2.9825504422187805 4.3689742535352707 4.9292296394705764
leaf_count=655 2244 126 208 27 931 31 495 45 16 22 22 202 50 42 21 830 20 40 20 115 29 21 24 31 33 26 461 21 28 42
internal_value=0 0.0350855 0.0759669 0.086863 -0.0744425 0.103339 0.0817479 0.0203945 0.112985 0.0313819 0.0271246 0.00118498 0.0464578 0.125165 0.115828 0.114327 0.0950907 0.109525 0.101534 0.085254 0.0942136 0.0494741 0.120309 0.157074 0.121113 -0.0158715 0.0220021 0.100829 0.0574901 0.0300759
internal_weight=0 589.698 429.418 359.024 160.28 286.3 88.4155 70.394 197.884 6.66094 65.8369 28.1149 37.722 19.3567 191.223 188.486 58.5211 51.7848 48.512 37.5155 34.8045 12.8218 21.9828 10.9965 8.3471 6.73635 72.7242 13.9968 7.35152 31.0916
internal_count=6878 4634 3048 2479 1586 1892 617 569 1275 49 524 224 300 122 1226 1210 380 333 313 242 222 83 139 71 54 47 587 91 49 250
cat_boundaries=0 1 2 3 4 5
cat_threshold=1 2 2 1 2
is_linear=0
shrinkage=0.1


Tree=24
num_leaves=31
num_cat=7
split_feature=5 5 5 5 5 5 1 2 5 3 2 1 1 1 2 1 1 1 1 1 1 2 0 5 2 1 1 1 1 3
split_gain=475.742 163.636 27.1546 23.2215 9.88105 7.99274 4.21038 3.79562 3.7509 2.75408 2.74627 4.24448 5.29771 2.88166 2.63626 8.94669 2.57365 2.36847 3.44615 4.0141 4.15635 3.89083 3.26068 2.26541 4.31106 4.72446 5.52732 3.31447 6.39005 8.17282
threshold=-0.13071738124593565 -1.3172757046755794 -1.0008601517610078 0.34390594812592196 -0.28892515770322147 -0.76354848707507894 0.089559373501570685 0 -1.5545873693615084 1 2 -0.2674039434658359 0.22342061736434818 -1.6541780994622288 3 -0.59532857790216376 1.3594705388241108 -1.5706033546166853 -1.4346173291052924 -0.83826194639387108 -0.21145136005229401 4 -1.0000000180025095e-35 -0.60534071061779315 5 0.6462521654388359 0.83252468996746276 -0.28581871775383705 0.53682591053513684 6
decision_type=2 2 2 2 2 2 2 9 2 9 9 2 2 2 9 2 2 2 2 2 2 9 2 2 9 2 2 2 2 9
left_child=1 8 6 10 5 -4 -3 9 -1 -8 11 -2 -13 -12 15 -6 -10 -16 -19 -20 21 -21 -22 24 27 -26 -27 -7 -29 -30
right_child=3 2 4 -5 14 23 7 -9 16 -11 13 12 -14 -15 17 -17 -18 18 19 20 22 -23 -24 -25 25 26 -28 28 29 -31
leaf_value=-0.092920592441237015 -0.065914596903268063 -0.0071542819109072057 0.079256134042017284 -0.095514647853495935 -0.082319277966510951 0.21602600492985324 0.036844595839239581 0.025767040306020374 -0.058311135047361365 0.16519219961616652 0.062676968482340917 0.14866916482961778 -0.0086933259919570512 -0.048170642342477671 0.14416012308128576 0.078638162483633742 0.0314569778224194 -0.014664097661059645 0.1283227671895667 -0.040703964220787377 0.12417446396913817 0.098439924072713292 0.061364651423943331 0.10596542896153283 0.13201452528065943 -0.020245667366700953 0.10209005156908718 0.032900450792486498 0.27581412266021044 0.091569013654492493
leaf_weight=46.127037227153778 5.622764118015767 27.297110535204411 82.455444887280464 306.80372818559408 4.8647657260298756 8.2465660870075244 2.8315104395151138 18.472438842058185 21.518887862563137 4.0822052955627441 2.4374552741646758 3.1967864856123906 6.467758946120739 62.000911422073841 4.7532512694597235 11.902730375528334 3.7504045516252509 4.3790641129016867 12.319738060235975 6.2621638029813749 11.249257072806349 2.9593001306056976 31.158091679215438 108.2800408154726 54.978229194879532 4.5608729571104076 19.414372220635414 4.1944691240787497 4.6667596697807303 4.9732954353094092
leaf_count=433 46 212 538 2813 37 46 20 132 192 29 20 26 53 510 29 78 30 29 79 44 72 21 209 639 318 28 115 24 27 29
internal_value=0 0.0643424 0.0874065 -0.08302 0.0966972 0.105627 0.0201082 0.0494228 -0.0759558 0.112627 -0.0349378 0.00316701 0.0433582 -0.0439777 0.0677002 0.0319395 -0.044988 0.0759051 0.0711569 0.0770338 0.0647951 0.00394931 0.078026 0.116015 0.126785 0.115861 0.0788178 0.165845 0.135932 0.180762
internal_weight=0 505.698 434.302 386.529 381.618 291.77 52.6833 25.3862 71.3963 6.91372 79.7257 15.2873 9.66455 64.4384 89.8484 16.7675 25.2693 73.0809 68.3276 63.9486 51.6288 9.22146 42.4073 209.315 101.035 78.9535 23.9752 22.0811 13.8345 9.64006
internal_count=6878 3410 2755 3468 2362 1764 393 181 655 49 655 125 79 530 598 115 222 483 454 425 346 65 281 1226 587 461 143 126 80 56
cat_boundaries=0 1 2 3 4 5 6 7
cat_threshold=2 1 2 2 1 2 1
is_linear=0
shrinkage=0.1


Tree=25
num_leaves=31
num_cat=4
split_feature=5 5 5 5 5 3 5 0 5 3 1 1 1 1 1 1 0 1 1 2 4 0 1 1 1 1 1 0 0 1
split_gain=685.273 35.4492 44.3279 14.1556 11.044 12.4821 7.87321 6.75013 6.12142 4.28967 3.7579 4.61721 3.61046 3.49712 6.8483 5.25237 6.79102 3.4777 3.37278 3.00398 2.85971 4.28528 4.79021 9.79101 3.81308 3.95163 3.6773 3.70423 3.94796 4.75974
threshold=-0.28892515770322147 -1.87100292227608 -0.60534071061779315 -0.13071738124593565 -1.5545873693615084 0 -0.76354848707507894 1.0000000180025095e-35 -2.1083145869620084 1 0.6462521654388359 0.16675977340126777 0.31266144660619988 0.73124343138345649 0.95576202558716272 0.49610092893667274 1.0000000180025095e-35 -1.0974853075249638 1.167531929899176 2 3 0.66641341075057137 -1.5019020813114503 -1.4084116887723674 -1.275966966008667 -1.0847366176332709 -0.78585066572802165 -1.0000000180025095e-35 -1.531447159112646 0.52301482981913594
decision_type=2 2 2 2 2 9 2 2 2 9 2 2 2 2 2 2 2 2 2 9 9 2 2 2 2 2 2 2 2 2
left_child=1 8 4 -2 5 -3 20 -7 -1 10 11 17 19 15 -15 16 -8 -4 -16 -10 -6 22 -22 -24 -25 -26 -27 28 29 -28
right_child=3 2 9 -5 6 7 13 -9 12 -11 -12 -13 -14 14 18 -17 -18 -19 -20 -21 21 -23 23 24 25 26 27 -29 -30 -31
leaf_value=-0.073828255182320002 -0.047566802486938342 0.16832946297761742 0.071987729863812785 -0.09778547092860862 0.14583904369771863 0.049476916888186763 0.048428003558851074 -0.081958285788448784 0.0061912367535630281 0.044589443797066065 -0.081558825006002533 0.1106685080158782 -0.029252817479290046 0.18605378763953007 0.022040361048711661 -0.0050059072535984794 0.12131735111087472 -0.078778081697128133 0.11479993793136063 0.13293345584477653 0.20228625494792865 0.20559778621179603 -0.050713888903800457 0.2040584439826644 0.022323461277681977 0.19334458040668542 0.014955357468757331 0.083156569765298255 0.14880063724482162 0.1348916452362921
leaf_weight=12.069669663906097 66.672986902296543 6.8493418246507645 2.3171910718083373 354.97668398916721 89.491246044635773 13.211566448211675 20.942756444215775 5.5483806878328314 3.6643711924552917 67.697900123894215 5.3335581496357927 3.7424251139163971 6.9426825121045113 11.355532750487329 5.516497656702998 6.0993633717298499 32.80370044708252 4.503570280969142 13.543428614735602 3.8190440088510513 6.1133324354887 5.7203209251165381 3.6030394732952109 4.807659000158309 4.5948701202869406 5.9459577798843375 5.7255917340516955 28.208163604140289 31.481797024607658 7.8393247127532959
leaf_count=120 598 41 20 3468 518 106 149 50 28 506 47 28 58 60 38 45 207 38 88 30 37 34 24 30 28 35 36 172 190 49
internal_value=0 0.0906767 0.0982248 -0.0898447 0.115682 0.0527886 0.121357 0.0106041 -0.0212792 0.0336123 -0.013135 0.0214135 0.0226862 0.096968 0.124578 0.0829355 0.0929154 -0.027559 0.0879526 0.0708721 0.132732 0.121458 0.116563 0.11088 0.117451 0.112482 0.117712 0.111573 0.129368 0.0842679
internal_weight=0 419.492 392.997 421.65 309.402 25.6093 283.793 18.7599 26.4958 83.5946 15.8967 10.5632 14.4261 90.2613 30.4155 59.8458 53.7465 6.82076 19.0599 7.48342 193.531 104.04 98.3197 92.2064 88.6034 83.7957 79.2008 73.2549 45.0467 13.5649
internal_count=6878 2812 2576 4066 1937 197 1740 156 236 639 133 86 116 587 186 401 356 58 126 58 1153 635 601 564 540 510 482 447 275 85
cat_boundaries=0 1 2 3 4
cat_threshold=2 2 1 1
is_linear=0
shrinkage=0.1


Tree=26
num_leaves=31
num_cat=5
split_feature=5 5 5 5 5 5 1 2 0 1 1 1 1 1 1 3 4 0 0 3 1 1 3 1 1 1 5 1 1 1
split_gain=1129.61 118.017 27.5464 26.5792 8.48878 4.3532 3.01711 2.9454 4.97193 4.76229 8.36443 2.77369 4.14814 2.70586 3.75274 3.26613 3.08301 2.91771 2.52536 3.64373 2.4216 2.07743 2.58222 2.33129 2.27037 2.00395 1.95948 1.90976 3.27749 3.99891
threshold=-0.76354848707507894 -1.3172757046755794 -1.0008601517610078 -0.60534071061779315 -1.5545873693615084 -0.28892515770322147 -0.30565001314091517 0 -1.531447159112646 0.29991275671450673 -0.80143239781786879 0.87714510458838857 1.4657096212548864 0.49255962618898019 -1.3602499714037493 1 2 1.0000000180025095e-35 -2.6303774440442544 3 -1.5104012079059124 -1.0755292304892701 4 -0.72777330066586421 -1.4721551382308331 -0.079714897838132057 -2.1083145869620084 0.95576202558716272 -0.10804531981967226 0.51168266102651982
decision_type=2 2 2 2 2 2 2 9 2 2 2 2 2 2 2 9 9 2 2 9 2 2 9 2 2 2 2 2 2 2
left_child=1 4 21 20 6 -5 18 13 -9 10 -10 -11 -13 14 -4 -16 17 -15 -1 -20 -2 22 24 -23 -3 -12 -21 28 -6 -30
right_child=3 2 7 5 27 -7 -8 8 9 11 25 12 -14 16 15 -17 -18 -19 19 26 -22 23 -24 -25 -26 -27 -28 -29 29 -31
leaf_value=0.27306156315077901 -0.099620908869563193 0.070796477138996533 0.11287206418761696 -0.070934881712480954 0.17285391445817311 -0.098416885757766123 0.25314971674316111 0.16068992130735241 -0.021568772188077255 -0.10037186079127275 0.14283877636636905 0.055732381321487369 -0.10017772680615032 0.17691261898892741 0.056274039807918397 -0.035794713451014301 0.030503786866767774 0.076609847810470422 0.23971276123993027 0.22738894491359277 -0.022244026011565596 0.066890631561192973 0.21445500176899485 0.13804289754234308 0.17760857275598241 0.04172751771496911 0.14892265859999784 0.14846872591922125 0.29931167312318191 0.18864322207785389
leaf_weight=6.70847263932228 4.3237943425774565 3.3880647271871558 6.4384153634309795 67.12428742647171 20.141373261809349 407.85890203714371 62.812114983797073 2.6415202021598807 8.7149965167045611 3.9713617861270887 6.8296496719121933 5.020295262336731 2.5852801278233528 6.0124548375606537 10.662518031895157 6.0333409681916281 4.4327575862407693 5.6025048717856407 15.531905725598335 4.4524186849594107 62.646230183541775 5.1196040064096442 7.5873581022024146 45.80244742333889 4.8226390182971945 2.7491617798805255 11.158646628260612 9.9987471997737867 5.7846980243921262 7.4961962550878525
leaf_count=28 40 22 45 639 102 4066 268 19 70 35 45 37 23 40 80 48 31 45 66 18 547 31 39 275 26 20 53 55 29 36
internal_value=0 0.160419 0.0944738 -0.0862176 0.223769 -0.0945331 0.23971 0.0514382 0.0291872 0.0175582 0.0493218 -0.0326345 0.00273556 0.0699015 0.0480144 0.0230034 0.101454 0.128531 0.217409 0.20542 -0.0272397 0.140718 0.172398 0.130889 0.133534 0.113819 0.171302 0.186812 0.198282 0.236847
internal_weight=0 282.499 138.414 541.953 144.085 474.983 100.664 71.6943 32.5123 29.8707 18.2938 11.5769 7.60558 39.182 23.1343 16.6959 16.0477 11.615 37.8514 31.143 66.97 66.7201 15.7981 50.9221 8.2107 9.57881 15.6111 43.421 33.4223 13.2809
internal_count=6878 1586 931 5292 655 4705 433 538 249 230 135 95 60 289 173 128 116 85 165 137 587 393 87 306 48 65 71 222 167 65
cat_boundaries=0 1 2 3 4 5
cat_threshold=1 1 1 1 1
is_linear=0
shrinkage=0.1


Tree=27
num_leaves=1
num_cat=0
split_feature=
split_gain=
threshold=
decision_type=
left_child=
right_child=
leaf_value=0
leaf_weight=
leaf_count=
internal_value=
internal_weight=
internal_count=
is_linear=0
shrinkage=1


Tree=28
num_leaves=31
num_cat=3
split_feature=5 5 5 0 0 0 1 0 5 1 1 1 1 1 1 1 1 0 1 1 1 3 3 1 1 1 1 1 0 4
split_gain=621.571 28.7205 13.5342 10.8961 9.47202 6.10661 5.65021 5.60339 4.97863 5.50948 9.29528 4.43704 3.73719 3.52267 8.05863 3.50271 3.42849 2.62447 2.61723 2.5221 2.30679 2.21796 2.15004 1.94269 4.66282 11.4069 9.77374 4.34185 4.25818 3.81624
threshold=0.50211372458320791 0.66032150104049381 1.0000000180025095e-35 0.66641341075057137 1.0000000180025095e-35 1.7653436956821802 -1.744127189253619 0.66641341075057137 1.6095681597842091 1.5174126413711975 1.1264528180259425 -0.89421452980741301 1.0931645721976329 -0.74052199055755741 0.49255962618898019 -1.4856120886720647 0.78223819095022884 0.66641341075057137 -1.3283782466745164 0.54709568850344514 0.37038468139358804 0 1 0.6462521654388359 -0.10804531981967226 -0.079714897838132057 -0.57089358894308539 0.53682591053513684 1.0000000180025095e-35 2
decision_type=2 2 2 2 2 2 2 2 2 2 2 2 2 2 2 2 2 2 2 2 2 9 9 2 2 2 2 2 2 9
left_child=2 4 -1 8 -2 13 -5 -4 9 10 12 -9 23 17 -15 -8 20 18 -6 -16 -13 -10 -19 24 26 -26 28 -27 -3 -28
right_child=1 3 7 6 5 -7 15 11 21 -11 -12 16 -14 14 19 -17 -18 22 -20 -21 -22 -23 -24 -25 25 27 29 -29 -30 -31
leaf_value=-0.09629321144584807 -0.081745818438391085 0.0022487502328878079 -0.068513996670945695 0.23503096456402131 -0.055917409411093667 0.17842655111107722 0.070134136487756113 -0.084279607591408554 0.10387304593519164 0.1814038938015565 -0.034530788732895411 0.007026219946097762 0.18588162244774714 -0.028635293170791221 0.13694986435114584 0.12887337201785473 -0.061393103387471615 0.073229780192795843 0.067324779042926386 0.047894020939652317 0.09397545557205926 0.16167231304254312 0.16379620552134636 0.048077366188529133 0.27467540639775123 0.078899420580687427 -0.082621886493266114 0.1962755538162877 0.10395374065026108 0.033005417995123972
leaf_weight=295.78473141789436 6.038136661052703 4.7009658291935912 81.959722876548767 4.7678227424621573 2.2840125560760498 3.4614172279834738 10.993203490972517 7.2782163769006756 16.259971559047699 5.1296245306730262 7.1917065754532805 11.405298627913 3.4177764803171149 16.629002578556538 3.7483465373516109 132.65586114674807 5.5267011374235144 6.5776023715734482 7.0171971619129181 20.976034015417099 4.1656713187694541 11.220554053783419 4.3579958528280258 16.39775475859642 3.9322998747229567 25.708088986575607 4.697434335947035 3.5917966663837424 33.116534277796745 7.2751588374376297
leaf_count=3448 62 36 885 22 21 20 62 77 91 29 52 119 22 143 28 710 61 39 51 149 44 58 24 119 26 161 35 21 211 52
internal_value=0 0.095047 -0.0851436 0.108965 0.0380648 0.0491857 0.127933 -0.055254 0.0892283 0.0801019 0.0753792 -0.0169545 0.0830655 0.0419223 0.0251923 0.124378 0.0062711 0.0761096 0.0370613 0.0613954 0.0302876 0.127473 0.109322 0.079531 0.0857434 0.114751 0.066382 0.0932883 0.0913111 -0.0123608
internal_weight=0 362.146 406.12 291.057 71.0897 65.0516 148.417 110.336 142.64 115.159 110.03 28.3759 102.838 61.5902 41.3534 143.649 21.0977 20.2368 9.30121 24.7244 15.571 27.4805 10.9356 99.42 83.0223 33.2322 49.7901 29.2999 37.8175 11.9726
internal_count=6878 2244 4634 1707 537 475 794 1186 913 764 735 301 683 455 320 772 224 135 72 177 163 149 63 661 542 208 334 182 247 87
cat_boundaries=0 1 2 3
cat_threshold=1 1 1
is_linear=0
shrinkage=0.1


Tree=29
num_leaves=31
num_cat=8
split_feature=5 5 5 5 5 1 5 2 4 1 1 0 1 3 1 1 2 4 0 2 1 1 1 5 3 1 1 0 1 3
split_gain=699.663 37.8575 15.6248 8.90284 3.09224 3.9469 2.85135 2.99692 5.79948 4.37654 7.0716 2.63298 3.09693 3.86276 3.63652 3.14614 3.60971 3.04035 2.70946 3.07136 5.98757 5.64067 4.70845 7.1365 2.50362 3.10958 3.01365 4.22705 3.35146 2.45951
threshold=0.50211372458320791 0.97673705395506549 -0.13071738124593565 0.66032150104049381 0.34390594812592196 0.96426115218162478 1.4513603833269231 0 1 -0.41047257447261393 0.33815882638958605 1.7653436956821802 0.99613287691085739 2 0.89697639997546674 1.0931645721976329 3 4 0.66641341075057137 5 -0.51033731195754306 0.50035049223390382 -0.51033731195754306 1.6095681597842091 6 0.37038468139358804 -0.34035478006830194 0.66641341075057137 -1.1654783202806602 7
decision_type=2 2 2 2 2 2 2 9 9 2 2 2 2 9 2 2 9 9 2 9 2 2 2 2 9 2 2 2 2 9
left_child=2 3 -1 -2 -4 29 7 24 9 -9 -11 12 14 -14 17 -15 -17 18 -8 20 -20 -22 23 -21 25 -3 27 28 -26 -6
right_child=1 6 4 -5 5 -7 11 8 -10 10 -12 -13 13 15 -16 16 -18 -19 19 22 21 -23 -24 -25 26 -27 -28 -29 -30 -31
leaf_value=-0.096824520395654645 0.034477709761997204 0.085988014993379963 -0.07039308595734585 0.081028754413417031 -0.048070903980497563 -0.098985710659850221 0.14037083288122182 0.10868567817497619 0.096312257969879383 0.31967269703976781 0.13315794206674175 0.074627054327335698 0.090335089188310999 0.2546320235750959 0.042207738493507452 0.19091732703581549 0.088678745348216223 0.19179828467049015 0.075739099702460677 0.2080118973090376 0.21381021362653924 0.092634740480954852 0.01932055964627874 0.022275191237529825 -0.0039544779880327317 0.19174953438572517 0.06156127399042384 0.16890441835968473 0.12693981340358668 -0.004314768765095906
leaf_weight=324.57495123893023 76.25918110460043 5.981756716966629 69.153777949512005 89.067984610795975 29.160366594791412 9.4661322832107526 55.322707042098045 4.9401730746030816 18.916709333658218 4.1366087049245817 3.9969271868467331 8.0126005709171277 5.7284788936376572 4.745683476328856 4.9280835837125769 12.517302557826035 4.7691059112548908 7.4254701882600775 12.730856344103815 4.6763506382703799 10.014590740203859 6.232064113020896 8.2121400535106641 3.7097213715314865 3.7150016874074936 5.1938443630933762 26.773658871650696 7.8049924820661545 4.131551727652548 22.961267352104187
leaf_count=3410 537 31 655 533 272 92 261 26 98 21 20 43 27 21 23 58 22 36 68 25 50 31 42 20 21 26 141 42 21 205
internal_value=0 0.0962073 -0.0850674 0.0595565 -0.0558797 -0.0395833 0.122034 0.107487 0.131709 0.182925 0.228017 0.130389 0.133557 0.16349 0.12622 0.182511 0.162711 0.130042 0.125497 0.107443 0.12709 0.167328 0.0731425 0.125848 0.0930315 0.135141 0.0819392 0.116798 0.0649671 -0.0287949
internal_weight=0 399.944 455.316 165.327 130.742 61.5878 234.616 85.5912 31.9904 13.0737 8.13354 149.025 141.013 27.7606 113.252 22.0321 17.2864 108.324 100.898 45.5757 28.9775 16.2467 16.5982 8.38607 53.6008 11.1756 42.4252 15.6515 7.84655 52.1216
internal_count=6878 2244 4634 1070 1224 569 1174 447 165 67 41 727 684 128 556 101 80 533 497 236 149 81 87 45 282 57 225 84 42 477
cat_boundaries=0 1 2 3 4 5 6 7 8
cat_threshold=1 1 2 1 2 1 2 1
is_linear=0
shrinkage=0.1


Tree=30
num_leaves=31
num_cat=5
split_feature=5 5 5 5 5 5 0 2 0 2 0 0 3 1 4 1 1 1 1 1 1 1 1 1 1 1 3 1 5 1
split_gain=395.715 78.1509 16.7792 19.3282 7.58649 7.50185 5.21573 3.86905 3.66135 3.21272 5.82438 5.25708 4.99983 3.57059 2.72845 5.02885 2.60788 3.17017 2.61411 2.75296 3.85353 2.5938 6.21204 5.80276 2.34121 3.69412 3.65659 2.61203 2.28029 6.51069
threshold=1.0000000180025095e-35 1.4513603833269231 0.34390594812592196 0.97673705395506549 1.6095681597842091 -0.28892515770322147 0.66641341075057137 0 1.7653436956821802 1 0.66641341075057137 1.0000000180025095e-35 2 1.0882067483508633 3 0.012358973601873607 -1.4084116887723674 -1.5514803197791458 0.44616856019420809 1.1193702125305574 1.5882386963250481 1.5684074009379698 1.4055074745441136 1.2656260160102588 1.1264528180259425 -0.87509149496987326 4 -1.3719362704711346 0.50211372458320791 -0.57089358894308539
decision_type=2 2 2 2 2 2 2 9 2 9 2 2 9 2 9 2 2 2 2 2 2 2 2 2 2 2 9 2 2 2
left_child=5 2 6 8 7 -1 16 -3 21 10 11 -5 -13 -11 -12 -16 17 -2 -18 -20 -21 22 23 28 25 27 -27 -9 -4 -30
right_child=1 4 3 9 -6 -7 -8 24 -10 13 14 12 -14 -15 15 -17 18 -19 19 20 -22 -23 -24 -25 -26 26 -28 -29 29 -31
leaf_value=-0.09371147825420903 0.011978705463765402 -0.074525429749936409 0.081117989609096386 -0.036652147168185649 -0.075234736289394671 -0.055629979153928505 0.075155586705759184 0.022121450407741362 0.025850322143211785 -0.018276475186977222 -0.050454827536939785 0.15308471569165508 0.041898558374300572 0.1003364593253552 -0.041038884710459689 0.094778886015905145 -0.010918555068049285 0.15109334644214795 0.056517605952581776 -0.054005419492654194 0.079543726189071309 0.14878322321187012 0.0088432371614368139 0.19186228483240586 -0.060782448501006364 0.11287828267099952 0.013829178944451875 -0.082609312202921073 0.07467126638272574 0.11614514385899083
leaf_weight=256.81628815829754 3.4862618893384933 7.9343806058168411 88.19240628182888 3.0188859105110195 30.734245844185352 64.777743928134441 21.399596557021141 4.0611887127161026 7.7707284465432158 17.880700513720516 5.8599396646022797 9.7113961949944461 6.9307780116796538 2.9577132612466803 4.9350618273019808 6.0908473804593086 27.698271930217743 3.0899610966444007 17.444748625159267 6.5288483500480634 3.2292908132076263 8.827905058860777 8.3588060587644559 6.2187488973140708 5.0979601070284835 4.679075799882412 18.319921493530277 5.7573780640959722 59.473315641283989 104.11137533187866
leaf_count=2812 27 73 518 23 324 636 135 35 59 142 48 69 54 23 40 48 231 19 125 59 21 50 48 33 46 40 157 52 361 570
internal_value=0 0.0561641 0.0729854 0.0828111 -0.0367925 -0.0860408 0.0326354 -0.0110237 0.0935432 0.0298939 0.0477605 0.0847567 0.10678 -0.00144107 0.00468393 0.0339885 0.0178345 0.0773443 0.0107063 0.0327249 -0.00980959 0.0954547 0.0936872 0.0964361 0.00226491 0.0120588 0.0339804 -0.0392902 0.0940791 0.101067
internal_weight=0 499.8 423.216 340.339 76.5842 321.594 82.877 45.8499 282.953 57.3853 36.5469 19.6611 16.6422 20.8384 16.8858 11.0259 61.4774 6.57622 54.9012 27.2029 9.75814 275.183 266.355 257.996 37.9155 32.8176 22.999 9.81857 251.777 163.585
internal_count=6878 3430 2703 2086 727 3448 617 403 1639 447 282 146 123 165 136 88 482 46 436 205 80 1580 1530 1482 330 284 197 87 1449 931
cat_boundaries=0 1 2 3 4 5
cat_threshold=2 1 1 1 2
is_linear=0
shrinkage=0.1


Tree=31
num_leaves=31
num_cat=7
split_feature=4 5 5 5 5 5 5 0 5 2 1 3 3 1 2 1 4 5 5 1 1 1 1 1 1 1 1 1 2 1
split_gain=212.939 164.106 86.2884 18.6167 14.4023 8.45031 5.31473 3.05281 2.58154 2.51876 3.02296 2.81729 2.00612 3.87493 2.45858 2.14471 1.97891 19.6048 2.05865 2.38855 1.77592 4.27001 2.73551 3.51957 1.81916 1.7558 3.36511 2.90655 2.29162 3.42783
threshold=0 -0.28892515770322147 0.50211372458320791 0.66032150104049381 -0.60534071061779315 -0.13071738124593565 0.97673705395506549 0.66641341075057137 -0.76354848707507894 1 -1.5706033546166853 2 3 -1.5252746794462209 4 1.4738546175745795 5 0.66032150104049381 1.2140487186409945 -1.5252746794462209 1.0000000180025095e-35 -0.15904007938644463 0.85802206975084894 1.185946704187177 1.0882067483508633 0.78223819095022884 0.96426115218162478 0.61154739851144913 6 0.1037245844923408
decision_type=9 2 2 2 2 2 2 2 2 9 2 9 9 2 9 2 9 2 2 2 2 2 2 2 2 2 2 2 9 2
left_child=1 4 5 -4 8 25 9 12 -1 11 -11 -5 14 -14 -6 20 17 -2 19 -19 21 -15 -22 24 -24 27 -27 28 -3 -30
right_child=16 2 3 6 7 -7 -8 -9 -10 10 -12 -13 13 15 -16 -17 -18 18 -20 -21 22 -23 23 -25 -26 26 -28 -29 29 -31
leaf_value=-0.090128023246365152 0.21700650473026384 0.052073162354001869 0.028160986803828194 0.070573696374307202 0.10531534032144133 0.10152709702207507 -0.097604274663180668 -0.082555983877412628 -0.059112157844415508 0.065269382655616215 -0.050781223931598687 -0.045999861606640664 0.076541454386522892 -0.030402883520485775 0.0025514206230977158 0.041607631079499358 -0.096710370914204438 0.011248278631521431 -0.094697243179086524 -0.073513827324613451 -0.079544820103108649 0.098792647261412403 -0.010858119162347737 -0.10041922165525577 0.095014665232054679 -0.012861814352401434 0.067433532293166412 0.15416830435140472 0.10762418253559547 0.015433289152235592
leaf_weight=49.800783038139343 2.2170777618885031 36.428216442465782 69.283998765051365 4.6871003955602646 2.9121546521782875 221.9698707908392 16.073306798934937 6.2981628850102416 58.193912647664547 2.4217991307377806 30.676447696983814 3.7173936143517494 3.9402519837021819 17.075510755181316 11.608286276459692 4.2138849794864646 102.59467349201441 3.6554674655199042 63.758412733674049 36.722043357789516 14.190645039081575 3.0089953243732444 4.4481542035937292 3.085454486310482 2.5552242025732994 7.579857304692271 16.760247901082039 4.2146193981170645 21.843395583331588 4.9464465081691733
leaf_count=518 22 234 517 42 25 1222 176 64 582 22 283 34 33 147 99 36 1115 38 683 387 122 26 38 27 22 52 113 27 139 33
internal_value=0 0.0298806 0.0628342 -0.0067606 -0.0501907 0.0909745 -0.0487834 -0.0159912 -0.0734148 -0.0298759 -0.0422898 0.019012 -0.00973752 -0.0188335 0.0231613 -0.0265696 -0.0868019 -0.0772436 -0.0835082 -0.0658401 -0.0330454 -0.0110472 -0.0512427 -0.0114338 0.0277702 0.065451 0.0424284 0.0737611 0.0684005 0.0906022
internal_weight=0 621.934 440.603 126.86 181.331 313.743 57.576 73.3367 107.995 41.5027 33.0982 8.40449 67.0386 52.5181 14.5204 48.5779 208.948 106.353 104.136 40.3775 44.364 20.0845 24.2795 10.0888 7.00338 91.7728 24.3401 67.4327 63.2181 26.7898
internal_count=6878 4633 2894 1074 1739 1820 557 639 1100 381 305 76 575 451 124 418 2245 1130 1108 425 382 173 209 87 60 598 165 433 406 172
cat_boundaries=0 1 2 3 4 5 6 7
cat_threshold=1 2 1 2 2 2 1
is_linear=0
shrinkage=0.1


Tree=32
num_leaves=31
num_cat=4
split_feature=5 5 5 5 5 1 5 1 5 0 1 1 1 1 1 0 1 2 1 1 1 1 5 2 2 1 1 1 2 0
split_gain=218.454 206.242 17.6972 25.3218 6.05923 3.9528 3.71007 3.07294 3.04571 3.04444 2.58201 5.05538 2.39576 3.47779 5.81817 3.39815 3.09348 4.96174 2.62662 3.23674 2.38494 2.61942 2.25641 2.25253 2.72742 5.0942 12.0921 2.19957 2.15724 2.11377
threshold=0.50211372458320791 -0.76354848707507894 0.34390594812592196 -0.60534071061779315 -1.3172757046755794 1.2468571114474882 1.0000000180025095e-35 -1.6350550646246893 -0.28892515770322147 1.0000000180025095e-35 0.73124343138345649 0.40473531804620555 1.5510550174742763 0.70149648830283928 -0.18666224081844632 0.66641341075057137 -0.98628840124741857 0 0.79002905699515247 0.9812594053705489 -0.76106154649417401 -0.42676256711199956 0.66032150104049381 1 2 -0.39276606073415132 0.62996217279945033 0.76878124050899721 3 1.0000000180025095e-35
decision_type=2 2 2 2 2 2 2 2 2 2 2 2 2 2 2 2 2 9 2 2 2 2 2 9 9 2 2 2 9 2
left_child=1 4 3 23 -1 10 7 8 -5 -8 11 -4 13 14 16 -16 -11 -18 -15 -20 -19 -22 29 27 -25 -26 -27 -3 -21 -2
right_child=22 2 5 6 -6 -7 9 -9 -10 12 -12 -13 -14 18 15 -17 17 20 19 28 21 -23 -24 24 25 26 -28 -29 -30 -31
leaf_value=-0.097079458272546604 -0.013888676517533231 -0.045087671646576566 0.026089258564880508 -0.041614322229086523 -0.055457431602080831 -0.07456248827940512 0.10246798294249018 0.095043705233478867 0.091894381009371195 0.040565845496782132 0.063249404872430845 -0.068916088228836381 -0.019660947515339477 0.16281836458439297 -0.02783827691600585 0.074408285630378421 0.0015063355509526667 0.18494172297623496 -0.00092298606435695183 0.070975447236427222 0.047469846393334944 0.16048348397223611 -0.094319501392897173 0.015748335717189591 0.0037154683240913731 0.25516790160224895 0.016052286760914414 0.036972087183937942 0.15890372517351203 -0.077439899846492632
leaf_weight=56.844992928206921 5.9365935176610938 9.0547970756888372 46.726518578827381 3.328514501452446 90.914874665439129 4.2659480944275847 21.137124449014664 208.15435004979372 3.5112256854772559 15.14376364648342 13.803354561328886 6.3636782690882674 3.6447617188096038 4.7953727841377285 11.828615829348566 4.4821368902921668 3.7879009246826172 5.1005664169788352 3.8857761919498435 7.3769766688346836 4.5828327387571317 3.7121363729238546 155.03691408783197 43.154574058949947 7.546867415308955 3.6340086385607702 5.0591290891170502 5.1097749322652826 4.4876058846712121 44.205029726028442
leaf_count=655 62 80 365 27 931 45 122 1226 22 105 103 56 29 29 85 32 27 30 28 50 31 22 1707 335 59 28 39 46 27 475
internal_value=0 0.0311399 0.0645592 0.0730778 -0.0714699 0.0187673 0.085632 0.0928765 0.0269233 0.0690564 0.0247192 0.0147014 0.0593593 0.0635223 0.0489502 0.000258715 0.0735175 0.102558 0.0980189 0.07829 0.131133 0.0980453 -0.0883557 0.0203483 0.028894 0.0638259 0.11601 -0.0154852 0.104233 -0.0699157
internal_weight=0 601.438 453.678 382.519 147.76 71.1595 308.96 214.994 6.83974 93.9656 66.8936 53.0902 72.8284 69.1837 48.638 16.3108 32.3272 17.1834 20.5457 15.7504 13.3955 8.29497 205.179 73.5592 59.3946 16.24 8.69314 14.1646 11.8646 50.1416
internal_count=6878 4634 3048 2479 1586 569 1892 1275 49 617 524 421 495 466 332 117 215 110 134 105 83 53 2244 587 461 126 67 126 77 537
cat_boundaries=0 1 2 3 4
cat_threshold=2 2 1 1
is_linear=0
shrinkage=0.1


Tree=33
num_leaves=31
num_cat=6
split_feature=5 5 5 5 5 5 5 2 1 1 1 4 1 2 1 1 1 1 3 3 1 1 1 1 1 0 3 1 1 1
split_gain=394.314 121.263 21.1363 17.1733 8.15388 4.92492 3.74559 3.45311 4.04691 4.09847 3.28812 2.88032 2.72151 2.57759 6.85687 2.2424 2.21311 2.89275 2.18747 2.026 3.68773 6.36397 1.99959 2.89459 2.8541 2.32088 2.67268 4.93559 6.02063 4.75207
threshold=1.0000000180025095e-35 -1.3172757046755794 0.34390594812592196 -1.0008601517610078 -0.28892515770322147 -0.76354848707507894 -1.5545873693615084 0 -0.2674039434658359 0.22342061736434818 0.20500584307634706 1 -1.6541780994622288 2 -0.59532857790216376 1.3594705388241108 0.058395909321876452 0.87502032293977305 3 4 1.2656260160102588 0.74080494880222625 1.2656260160102588 1.0145476511988587 1.5953213018204331 0.66641341075057137 5 -0.72777330066586421 -0.28581871775383705 0.2899971090209677
decision_type=2 2 2 2 2 2 2 9 2 2 2 9 2 9 2 2 2 2 9 9 2 2 2 2 2 2 9 2 2 2
left_child=1 6 7 10 5 22 -1 8 -2 -10 -3 -12 -9 14 -6 -8 -16 -18 -11 -13 21 -21 23 25 -24 26 -5 -28 -29 -30
right_child=2 3 -4 4 13 -7 15 12 9 18 11 19 -14 -15 16 -17 17 -19 -20 20 -22 -23 24 -25 -26 -27 27 28 29 -31
leaf_value=-0.090833433889449811 -0.060987791806947994 -0.0045288745301505636 -0.093905360328408169 0.031758303606242738 -0.08118871347767638 0.095436971839000656 -0.054435731770756252 0.057894499720735321 0.13989683997919408 0.057398960021410012 -0.017118330489314847 0.11207021713980198 -0.048684524475218899 0.062405003831114962 0.12078983541232716 0.029281268618094838 -0.023022570154382898 0.087982694855661001 -0.064705081873577167 -0.023225794089932181 -0.034819043894359088 0.14522238372114002 0.13732589395327016 -0.01094518815584767 0.035977363519123305 -0.0073416287884716189 0.04179534861348505 0.18688067557959989 0.02185322900466322 0.1136326736853563
leaf_weight=41.360062099993229 5.0596063435077676 27.65781607478857 279.54353857040405 13.639238685369492 4.8430746942758587 226.93618163466454 20.101964563131336 2.5034234821796408 3.2855118215084058 3.1497419103980073 5.7115157842636108 5.9852928519248962 55.773974314332008 80.674968726933002 3.927622824907302 3.8051821738481513 4.7884005978703481 4.6055372282862663 2.7465228363871566 3.7523920834064537 4.2621742039918891 5.5750912725925446 8.5169342607259733 5.1686264872550955 4.1241635680198661 3.9978918284177771 19.507529512047768 7.0939644873142198 8.5241422653198295 16.681922763586044
leaf_count=433 44 218 2813 85 39 1226 192 20 24 26 40 41 480 513 24 30 31 29 23 28 29 37 50 32 24 25 124 42 54 102
internal_value=0 0.0550391 -0.0814256 0.0729198 0.0797931 0.0876737 -0.0726203 -0.0333191 0.0108231 0.0503945 0.0192998 0.0453631 -0.0441062 0.0547422 0.0207095 -0.0411109 0.0577547 0.0313996 0.000522013 0.0635937 0.0422432 0.0774567 0.0674825 0.0612515 0.104261 0.0666249 0.0711433 0.0815121 0.105499 0.0825949
internal_weight=0 531.242 352.062 465.974 413.03 314.191 65.2672 72.5188 14.2414 9.18178 52.9443 25.2865 58.2774 98.8396 18.1646 23.9071 13.3216 9.39394 5.89626 19.575 13.5897 9.32748 87.2544 74.6133 12.6411 69.4447 65.4468 51.8076 32.3 25.2061
